{"features": ["annual_rainfall", "seasonal_rainfall", "monthly_rainfall", "cloud_visibility", "temperature", "humidity", "atmospheric_pressure", "wind_speed", "river_level", "cloud_cover"], "threshold": 0.34400880176035203, "base_score": 0.24325, "scaler_mean": [2380.4236650000003, 1551.7288800000001, 504.21747250000004, 5.2541575, 27.40924, 70.27558375000002, 1004.912025, 35.958445, 7.77192375, 54.402027499999996], "scaler_scale": [920.3635568427934, 638.970867309356, 239.0408303934952, 2.7482363190223924, 7.197563177728974, 17.33933590522532, 14.363802453541853, 19.431688826038126, 4.243555485873365, 25.859447040960557], "trees": [{"base_weights": [-6.7304384e-08, -0.9219555, 1.7565001, -1.2225647, 0.06630867, -0.10578636, 3.377387, -1.2850066, -0.6504873, -0.8900853, 2.2572546, -0.7941409, 1.886742, 2.4069653, 3.8694146, -0.10441068, -0.07129174, -0.08936122, 0.09431301, -0.09588603, 0.019570123, 0.06528548, 0.23671207, -0.08219385, 0.028297344, 0.046853755, 0.2404311, 0.114798896, 0.28360295, 0.024413604, 0.31208703], "categories": [], "categories_nodes": [], "categories_segments": [], "categories_sizes": [], "default_left": [0, 0, 0, 0, 0, 0, 0, 0, 0, 0, 0, 0, 0, 0, 0, 0, 0, 0, 0, 0, 0, 0, 0, 0, 0, 0, 0, 0, 0, 0, 0], "id": 0, "left_children": [1, 3, 5, 7, 9, 11, 13, 15, 17, 19, 21, 23, 25, 27, 29, -1, -1, -1, -1, -1, -1, -1, -1, -1, -1, -1, -1, -1, -1, -1, -1], "loss_changes": [2388.0469, 287.37323, 1532.5358, 25.653442, 476.6133, 326.79803, 120.27905, 4.128784, 65.32677, 55.736465, 67.46896, 47.75419, 87.30383, 98.849915, 18.955078, 0.0, 0.0, 0.0, 0.0, 0.0, 0.0, 0.0, 0.0, 0.0, 0.0, 0.0, 0.0, 0.0, 0.0, 0.0, 0.0], "parents": [2147483647, 0, 0, 1, 1, 2, 2, 3, 3, 4, 4, 5, 5, 6, 6, 7, 7, 8, 8, 9, 9, 10, 10, 11, 11, 12, 12, 13, 13, 14, 14], "right_children": [2, 4, 6, 8, 10, 12, 14, 16, 18, 20, 22, 24, 26, 28, 30, -1, -1, -1, -1, -1, -1, -1, -1, -1, -1, -1, -1, -1, -1, -1, -1], "split_conditions": [0.4382064, 0.97278714, -0.12063558, 0.41827637, -0.1700999, 1.4874561, 0.5061973, 0.48683116, 0.44728443, -0.46604455, -0.18062802, -0.4175564, -1.0679544, 1.1050912, -0.44133663, -0.10441068, -0.07129174, -0.08936122, 0.09431301, -0.09588603, 0.019570123, 0.06528548, 0.23671207, -0.08219385, 0.028297344, 0.046853755, 0.2404311, 0.114798896, 0.28360295, 0.024413604, 0.31208703], "split_indices": [1, 8, 8, 0, 1, 1, 8, 2, 8, 1, 2, 8, 8, 1, 2, 0, 0, 0, 0, 0, 0, 0, 0, 0, 0, 0, 0, 0, 0, 0, 0], "split_type": [0, 0, 0, 0, 0, 0, 0, 0, 0, 0, 0, 0, 0, 0, 0, 0, 0, 0, 0, 0, 0, 0, 0, 0, 0, 0, 0, 0, 0, 0, 0], "sum_hessian": [1472.6355, 966.0489, 506.5866, 740.5516, 225.49731, 236.17392, 270.4127, 666.55164, 73.99993, 157.38792, 68.10939, 175.97995, 60.193977, 92.96011, 177.45258, 631.9447, 34.606934, 59.27358, 14.726355, 123.701385, 33.68654, 23.00993, 45.09946, 146.34315, 29.63679, 28.532312, 31.661663, 51.358162, 41.60195, 1.6567149, 175.79587], "tree_param": {"num_deleted": "0", "num_feature": "10", "num_nodes": "31", "size_leaf_vector": "1"}}, {"base_weights": [-0.0053834273, -0.9395166, 1.4226289, -1.2137706, -0.07987254, -0.16757084, 2.6632292, -1.2279142, 0.4905708, -0.98542887, 1.5244603, -0.865248, 1.5150772, 1.9909725, 3.1306045, -0.100395076, -0.0604432, -0.076340795, 0.15529832, -0.0930457, 0.0041046455, 0.04814399, 0.19833383, -0.08666035, 0.0053475737, 0.032658305, 0.18971172, 0.042481445, 0.2067753, 0.06892436, 0.25189027], "categories": [], "categories_nodes": [], "categories_segments": [], "categories_sizes": [], "default_left": [0, 0, 0, 0, 0, 0, 0, 0, 0, 0, 0, 0, 0, 0, 0, 0, 0, 0, 0, 0, 0, 0, 0, 0, 0, 0, 0, 0, 0, 0, 0], "id": 1, "left_children": [1, 3, 5, 7, 9, 11, 13, 15, 17, 19, 21, 23, 25, 27, 29, -1, -1, -1, -1, -1, -1, -1, -1, -1, -1, -1, -1, -1, -1, -1, -1], "loss_changes": [1962.9823, 209.63812, 1148.5006, 16.858276, 315.6569, 301.81372, 96.49805, 7.5933228, 14.983054, 25.627426, 67.57794, 36.9711, 70.48845, 117.23944, 5.1035156, 0.0, 0.0, 0.0, 0.0, 0.0, 0.0, 0.0, 0.0, 0.0, 0.0, 0.0, 0.0, 0.0, 0.0, 0.0, 0.0], "parents": [2147483647, 0, 0, 1, 1, 2, 2, 3, 3, 4, 4, 5, 5, 6, 6, 7, 7, 8, 8, 9, 9, 10, 10, 11, 11, 12, 12, 13, 13, 14, 14], "right_children": [2, 4, 6, 8, 10, 12, 14, 16, 18, 20, 22, 24, 26, 28, 30, -1, -1, -1, -1, -1, -1, -1, -1, -1, -1, -1, -1, -1, -1, -1, -1], "split_conditions": [0.35402414, 0.97278714, -0.09471391, 1.0057942, -0.29525426, 1.3813167, 0.6593707, 0.52452785, -0.04051408, -0.46604455, 0.079265796, -0.4175564, -1.0679544, 0.70051885, -0.45074925, -0.100395076, -0.0604432, -0.076340795, 0.15529832, -0.0930457, 0.0041046455, 0.04814399, 0.19833383, -0.08666035, 0.0053475737, 0.032658305, 0.18971172, 0.042481445, 0.2067753, 0.06892436, 0.25189027], "split_indices": [1, 8, 8, 0, 1, 1, 8, 0, 8, 1, 5, 8, 8, 1, 2, 0, 0, 0, 0, 0, 0, 0, 0, 0, 0, 0, 0, 0, 0, 0, 0], "split_type": [0, 0, 0, 0, 0, 0, 0, 0, 0, 0, 0, 0, 0, 0, 0, 0, 0, 0, 0, 0, 0, 0, 0, 0, 0, 0, 0, 0, 0, 0, 0], "sum_hessian": [1469.5502, 888.6092, 580.941, 673.3704, 215.23874, 254.97688, 325.96408, 668.1057, 5.26474, 137.8282, 77.410545, 180.58615, 74.39074, 135.83849, 190.12558, 630.385, 37.720707, 2.8091066, 2.4556334, 117.56232, 20.265877, 40.195175, 37.215374, 146.22382, 34.36233, 33.092827, 41.29791, 39.818703, 96.01978, 1.8829265, 188.24266], "tree_param": {"num_deleted": "0", "num_feature": "10", "num_nodes": "31", "size_leaf_vector": "1"}}, {"base_weights": [-0.008651538, -0.95130265, 1.1980593, -1.2031312, -0.18597376, -0.04967717, 2.3322845, -1.2343494, -0.7808166, -1.0157413, 1.1362326, -0.7026529, 1.4506804, 1.5493691, 2.5545826, -0.10064153, -0.08475951, -0.09408084, 0.040964082, -0.09043736, -0.0019052405, 0.018424107, 0.15884586, -0.08598091, 0.01287426, 0.026523152, 0.16849211, 0.040524434, 0.18312702, 0.16932651, 0.21584551], "categories": [], "categories_nodes": [], "categories_segments": [], "categories_sizes": [], "default_left": [0, 0, 0, 0, 0, 0, 0, 0, 0, 0, 0, 0, 0, 0, 0, 0, 0, 0, 0, 0, 0, 0, 0, 0, 0, 0, 0, 0, 0, 0, 0], "id": 2, "left_children": [1, 3, 5, 7, 9, 11, 13, 15, 17, 19, 21, 23, 25, 27, 29, -1, -1, -1, -1, -1, -1, -1, -1, -1, -1, -1, -1, -1, -1, -1, -1], "loss_changes": [1656.1304, 157.31378, 903.77795, 7.142212, 224.47772, 299.85782, 54.259033, 1.029541, 23.616253, 14.265671, 60.29737, 68.68634, 67.39403, 57.86322, 10.565918, 0.0, 0.0, 0.0, 0.0, 0.0, 0.0, 0.0, 0.0, 0.0, 0.0, 0.0, 0.0, 0.0, 0.0, 0.0, 0.0], "parents": [2147483647, 0, 0, 1, 1, 2, 2, 3, 3, 4, 4, 5, 5, 6, 6, 7, 7, 8, 8, 9, 9, 10, 10, 11, 11, 12, 12, 13, 13, 14, 14], "right_children": [2, 4, 6, 8, 10, 12, 14, 16, 18, 20, 22, 24, 26, 28, 30, -1, -1, -1, -1, -1, -1, -1, -1, -1, -1, -1, -1, -1, -1, -1, -1], "split_conditions": [0.27547598, 0.97278714, 0.09616376, 0.13789536, -0.36281604, 1.3584049, 0.59705555, 0.6028144, 0.24698068, -0.46604455, 0.079265796, -0.4175564, -1.0679544, 0.8502484, -0.7990839, -0.10064153, -0.08475951, -0.09408084, 0.040964082, -0.09043736, -0.0019052405, 0.018424107, 0.15884586, -0.08598091, 0.01287426, 0.026523152, 0.16849211, 0.040524434, 0.18312702, 0.16932651, 0.21584551], "split_indices": [1, 8, 8, 1, 1, 1, 1, 8, 8, 1, 5, 8, 8, 8, 5, 0, 0, 0, 0, 0, 0, 0, 0, 0, 0, 0, 0, 0, 0, 0, 0], "split_type": [0, 0, 0, 0, 0, 0, 0, 0, 0, 0, 0, 0, 0, 0, 0, 0, 0, 0, 0, 0, 0, 0, 0, 0, 0, 0, 0, 0, 0, 0, 0], "sum_hessian": [1453.9275, 816.3936, 637.5338, 613.83997, 202.55368, 304.03156, 333.5023, 569.79675, 44.043186, 124.59455, 77.95913, 212.20763, 91.82392, 75.51491, 257.98737, 496.40518, 73.39156, 33.80141, 10.241775, 111.552734, 13.041814, 38.337933, 39.621197, 148.13374, 64.07388, 34.47228, 57.351643, 32.03648, 43.478424, 67.54696, 190.44041], "tree_param": {"num_deleted": "0", "num_feature": "10", "num_nodes": "31", "size_leaf_vector": "1"}}, {"base_weights": [-0.0108147375, -0.9203478, 1.0774165, -1.1257674, 0.008868772, -0.20440163, 1.9341613, -1.1976677, -0.7199622, -1.0682057, 1.2179539, -0.70007265, 1.5673456, 0.85583854, 2.0960827, -0.0985224, -0.07545883, -0.09357282, 0.029110316, -0.093104415, -0.02966255, -0.006391892, 0.1384541, -0.078137316, 0.030105455, -0.0011338515, 0.15247346, -0.027085442, 0.12829946, 0.10372053, 0.18022758], "categories": [], "categories_nodes": [], "categories_segments": [], "categories_sizes": [], "default_left": [0, 0, 0, 0, 0, 0, 0, 0, 0, 0, 0, 0, 0, 0, 0, 0, 0, 0, 0, 0, 0, 0, 0, 0, 0, 0, 0, 0, 0, 0, 0], "id": 3, "left_children": [1, 3, 5, 7, 9, 11, 13, 15, 17, 19, 21, 23, 25, 27, 29, -1, -1, -1, -1, -1, -1, -1, -1, -1, -1, -1, -1, -1, -1, -1, -1], "loss_changes": [1416.9519, 148.85956, 716.1606, 17.771667, 186.44861, 231.19861, 66.43298, 3.4994507, 48.497887, 4.6172333, 45.021202, 61.53901, 30.862228, 47.62475, 39.576782, 0.0, 0.0, 0.0, 0.0, 0.0, 0.0, 0.0, 0.0, 0.0, 0.0, 0.0, 0.0, 0.0, 0.0, 0.0, 0.0], "parents": [2147483647, 0, 0, 1, 1, 2, 2, 3, 3, 4, 4, 5, 5, 6, 6, 7, 7, 8, 8, 9, 9, 10, 10, 11, 11, 12, 12, 13, 13, 14, 14], "right_children": [2, 4, 6, 8, 10, 12, 14, 16, 18, 20, 22, 24, 26, 28, 30, -1, -1, -1, -1, -1, -1, -1, -1, -1, -1, -1, -1, -1, -1, -1, -1], "split_conditions": [0.27547598, 1.1848735, -0.09471391, -0.019842658, -0.46604455, 1.5834639, -0.0012444422, -0.085003, 0.40251064, -0.5354663, -0.44133663, 1.3813167, 0.994277, 0.6593707, 0.2328416, -0.0985224, -0.07545883, -0.09357282, 0.029110316, -0.093104415, -0.02966255, -0.006391892, 0.1384541, -0.078137316, 0.030105455, -0.0011338515, 0.15247346, -0.027085442, 0.12829946, 0.10372053, 0.18022758], "split_indices": [1, 8, 8, 1, 1, 2, 2, 0, 8, 0, 2, 1, 0, 8, 8, 0, 0, 0, 0, 0, 0, 0, 0, 0, 0, 0, 0, 0, 0, 0, 0], "split_type": [0, 0, 0, 0, 0, 0, 0, 0, 0, 0, 0, 0, 0, 0, 0, 0, 0, 0, 0, 0, 0, 0, 0, 0, 0, 0, 0, 0, 0, 0, 0], "sum_hessian": [1429.5776, 778.81006, 650.7676, 637.6376, 141.17242, 261.01364, 389.75394, 540.0078, 97.62976, 74.723724, 66.4487, 204.42714, 56.58648, 51.70532, 338.0486, 473.19077, 66.817085, 68.94466, 28.685104, 65.127625, 9.5961, 19.056133, 47.39257, 162.70328, 41.723866, 10.146935, 46.439545, 20.120352, 31.584967, 56.932316, 281.1163], "tree_param": {"num_deleted": "0", "num_feature": "10", "num_nodes": "31", "size_leaf_vector": "1"}}, {"base_weights": [-0.012525486, -0.84851533, 1.036263, -1.13077, -0.06415996, -0.13993286, 1.8099054, -1.1685946, -0.23192921, -0.7818123, 1.3408785, -0.76287633, 1.0667858, 1.0729345, 1.9926726, -0.095772, -0.062446278, -0.07567274, 0.0770305, -0.08789926, -0.0013676038, 0.0010993181, 0.13934925, -0.07940043, 0.0056607854, 0.030578265, 0.15444142, 0.019354295, 0.13355619, 0.11583806, 0.17057398], "categories": [], "categories_nodes": [], "categories_segments": [], "categories_sizes": [], "default_left": [0, 0, 0, 0, 0, 0, 0, 0, 0, 0, 0, 0, 0, 0, 0, 0, 0, 0, 0, 0, 0, 0, 0, 0, 0, 0, 0, 0, 0, 0, 0], "id": 4, "left_children": [1, 3, 5, 7, 9, 11, 13, 15, 17, 19, 21, 23, 25, 27, 29, -1, -1, -1, -1, -1, -1, -1, -1, -1, -1, -1, -1, -1, -1, -1, -1], "loss_changes": [1229.5873, 172.68909, 566.2772, 19.236816, 210.34149, 187.04039, 48.41284, 5.1637573, 21.741627, 33.432182, 37.51655, 31.458855, 49.380272, 37.639343, 19.674805, 0.0, 0.0, 0.0, 0.0, 0.0, 0.0, 0.0, 0.0, 0.0, 0.0, 0.0, 0.0, 0.0, 0.0, 0.0, 0.0], "parents": [2147483647, 0, 0, 1, 1, 2, 2, 3, 3, 4, 4, 5, 5, 6, 6, 7, 7, 8, 8, 9, 9, 10, 10, 11, 11, 12, 12, 13, 13, 14, 14], "right_children": [2, 4, 6, 8, 10, 12, 14, 16, 18, 20, 22, 24, 26, 28, 30, -1, -1, -1, -1, -1, -1, -1, -1, -1, -1, -1, -1, -1, -1, -1, -1], "split_conditions": [0.41827637, 0.97278714, -0.07821831, 0.59705555, -0.18062802, 1.3813167, 0.1574732, 0.48683116, 0.21870251, -0.42788944, -0.986519, -0.4175564, 1.7461557, 0.75834435, 0.3153196, -0.095772, -0.062446278, -0.07567274, 0.0770305, -0.08789926, -0.0013676038, 0.0010993181, 0.13934925, -0.07940043, 0.0056607854, 0.030578265, 0.15444142, 0.019354295, 0.13355619, 0.11583806, 0.17057398], "split_indices": [0, 8, 8, 1, 2, 1, 2, 2, 8, 1, 5, 8, 2, 8, 8, 0, 0, 0, 0, 0, 0, 0, 0, 0, 0, 0, 0, 0, 0, 0, 0], "split_type": [0, 0, 0, 0, 0, 0, 0, 0, 0, 0, 0, 0, 0, 0, 0, 0, 0, 0, 0, 0, 0, 0, 0, 0, 0, 0, 0, 0, 0, 0, 0], "sum_hessian": [1400.3925, 779.35724, 621.03516, 572.7929, 206.56433, 246.73477, 374.3004, 549.3743, 23.418636, 137.0214, 69.54294, 162.97177, 83.76299, 75.74497, 298.55542, 509.77304, 39.601257, 14.78933, 8.629306, 96.564514, 40.456875, 16.376465, 53.166473, 127.626015, 35.345764, 47.532932, 36.230057, 32.23881, 43.50616, 63.192993, 235.36244], "tree_param": {"num_deleted": "0", "num_feature": "10", "num_nodes": "31", "size_leaf_vector": "1"}}, {"base_weights": [-0.013553096, -0.9099672, 0.8673656, -1.1502181, -0.23581362, -0.25068554, 1.542689, -0.09503158, -0.90926164, -1.0427018, 0.6225949, -0.78970975, 1.0710201, 0.8777957, 1.7753032, -0.09017048, -0.006950885, -0.08655863, 0.024439573, -0.027633823, 0.09494646, -0.08165153, -0.004003438, -0.036155798, 0.111595854, 0.004591284, 0.13205065, 0.10956823, 0.1542279], "categories": [], "categories_nodes": [], "categories_segments": [], "categories_sizes": [], "default_left": [0, 0, 0, 0, 0, 0, 0, 0, 0, 0, 0, 0, 0, 0, 0, 0, 0, 0, 0, 0, 0, 0, 0, 0, 0, 0, 0, 0, 0], "id": 5, "left_children": [1, 3, 5, 7, 9, 11, 13, -1, 15, 17, 19, 21, 23, 25, 27, -1, -1, -1, -1, -1, -1, -1, -1, -1, -1, -1, -1, -1, -1], "loss_changes": [1080.4742, 109.56763, 521.4473, 3.456604, 124.93498, 186.59795, 65.005005, 0.0, 12.7729, 5.248741, 48.23951, 31.682182, 38.10087, 71.882484, 17.030823, 0.0, 0.0, 0.0, 0.0, 0.0, 0.0, 0.0, 0.0, 0.0, 0.0, 0.0, 0.0, 0.0, 0.0], "parents": [2147483647, 0, 0, 1, 1, 2, 2, 3, 3, 4, 4, 5, 5, 6, 6, 8, 8, 9, 9, 10, 10, 11, 11, 12, 12, 13, 13, 14, 14], "right_children": [2, 4, 6, 8, 10, 12, 14, -1, 16, 18, 20, 22, 24, 26, 28, -1, -1, -1, -1, -1, -1, -1, -1, -1, -1, -1, -1, -1, -1], "split_conditions": [0.20350085, 0.9939958, -0.13713117, 0.6028144, -0.46604455, 1.4340334, 0.59705555, -0.09503158, -0.15105365, -0.20612904, -0.28406993, 1.2216381, 1.0447443, 0.8502484, 0.41900626, -0.09017048, -0.006950885, -0.08655863, 0.024439573, -0.027633823, 0.09494646, -0.08165153, -0.004003438, -0.036155798, 0.111595854, 0.004591284, 0.13205065, 0.10956823, 0.1542279], "split_indices": [1, 8, 8, 8, 1, 2, 1, 0, 1, 0, 5, 1, 1, 8, 8, 0, 0, 0, 0, 0, 0, 0, 0, 0, 0, 0, 0, 0, 0], "split_type": [0, 0, 0, 0, 0, 0, 0, 0, 0, 0, 0, 0, 0, 0, 0, 0, 0, 0, 0, 0, 0, 0, 0, 0, 0, 0, 0, 0, 0], "sum_hessian": [1366.2645, 677.16016, 689.10443, 498.72226, 178.43788, 259.7299, 429.3745, 427.88657, 70.83572, 91.8685, 86.56939, 184.77612, 74.953766, 112.52168, 316.85284, 55.70689, 15.128826, 89.45946, 2.4090405, 32.02105, 54.54834, 140.523, 44.25314, 13.076869, 61.876892, 55.102234, 57.419453, 89.30941, 227.54343], "tree_param": {"num_deleted": "0", "num_feature": "10", "num_nodes": "29", "size_leaf_vector": "1"}}, {"base_weights": [-0.014396894, -0.935195, 0.7594361, -1.1028738, -0.20591621, -0.13169546, 1.4886684, -0.09389136, -0.82787263, -0.981937, 0.73064625, -0.73725355, 0.9231814, 0.5998113, 1.6390775, -0.089515194, 0.02530847, -0.08743232, -0.018531045, -0.032441903, 0.0975383, -0.084170565, -0.010886353, 0.012679662, 0.13594773, 0.0045934124, 0.11496702, 0.094676696, 0.14453389], "categories": [], "categories_nodes": [], "categories_segments": [], "categories_sizes": [], "default_left": [0, 0, 0, 0, 0, 0, 0, 0, 0, 0, 0, 0, 0, 0, 0, 0, 0, 0, 0, 0, 0, 0, 0, 0, 0, 0, 0, 0, 0], "id": 6, "left_children": [1, 3, 5, 7, 9, 11, 13, -1, 15, 17, 19, 21, 23, 25, 27, -1, -1, -1, -1, -1, -1, -1, -1, -1, -1, -1, -1, -1, -1], "loss_changes": [948.16266, 74.07648, 470.06238, 8.63855, 84.168205, 209.13065, 52.18988, 0.0, 35.144615, 5.010334, 29.69442, 39.205574, 70.62846, 26.774323, 23.792786, 0.0, 0.0, 0.0, 0.0, 0.0, 0.0, 0.0, 0.0, 0.0, 0.0, 0.0, 0.0, 0.0, 0.0], "parents": [2147483647, 0, 0, 1, 1, 2, 2, 3, 3, 4, 4, 5, 5, 6, 6, 8, 8, 9, 9, 10, 10, 11, 11, 12, 12, 13, 13, 14, 14], "right_children": [2, 4, 6, 8, 10, 12, 14, -1, 16, 18, 20, 22, 24, 26, 28, -1, -1, -1, -1, -1, -1, -1, -1, -1, -1, -1, -1, -1, -1], "split_conditions": [0.10949031, 1.1942995, 0.12679845, 0.64758813, -0.46604455, 1.2421085, -0.02379289, -0.09389136, -0.102680795, -0.5354663, -0.667146, -0.3987043, -0.81109434, 1.1471692, -0.7662106, -0.089515194, 0.02530847, -0.08743232, -0.018531045, -0.032441903, 0.0975383, -0.084170565, -0.010886353, 0.012679662, 0.13594773, 0.0045934124, 0.11496702, 0.094676696, 0.14453389], "split_indices": [1, 8, 8, 8, 1, 1, 2, 0, 0, 0, 9, 8, 8, 8, 5, 0, 0, 0, 0, 0, 0, 0, 0, 0, 0, 0, 0, 0, 0], "split_type": [0, 0, 0, 0, 0, 0, 0, 0, 0, 0, 0, 0, 0, 0, 0, 0, 0, 0, 0, 0, 0, 0, 0, 0, 0, 0, 0, 0, 0], "sum_hessian": [1328.6758, 606.6286, 722.0471, 492.80792, 113.820694, 325.32053, 396.72656, 389.34647, 103.461464, 62.218765, 51.601925, 206.86792, 118.452614, 58.13864, 338.58792, 82.49787, 20.963596, 53.804604, 8.414162, 15.568436, 36.033493, 135.26807, 71.59985, 60.27414, 58.17847, 35.930916, 22.207726, 93.221535, 245.3664], "tree_param": {"num_deleted": "0", "num_feature": "10", "num_nodes": "29", "size_leaf_vector": "1"}}, {"base_weights": [-0.015021981, -0.8757859, 0.74061686, -1.0658324, -0.1350776, -0.2848472, 1.3007543, -1.1406221, -0.69650483, -0.9619663, 0.65827864, -0.93240476, 0.70038146, 0.73984295, 1.5516663, -0.092133045, -0.051558923, -0.08791096, 0.019674882, -0.08591482, -0.01959868, -0.004120296, 0.113778934, -0.08278666, 0.0046898634, -0.045997795, 0.08018308, 0.012648013, 0.10673857, 0.08223902, 0.13409443], "categories": [], "categories_nodes": [], "categories_segments": [], "categories_sizes": [], "default_left": [0, 0, 0, 0, 0, 0, 0, 0, 0, 0, 0, 0, 0, 0, 0, 0, 0, 0, 0, 0, 0, 0, 0, 0, 0, 0, 0, 0, 0, 0, 0], "id": 7, "left_children": [1, 3, 5, 7, 9, 11, 13, 15, 17, 19, 21, 23, 25, 27, 29, -1, -1, -1, -1, -1, -1, -1, -1, -1, -1, -1, -1, -1, -1, -1, -1], "loss_changes": [840.3311, 84.87552, 395.5628, 12.477783, 82.28493, 156.23985, 61.50061, 1.4379883, 31.929398, 4.6621666, 34.838985, 15.041473, 38.036247, 48.022545, 18.271973, 0.0, 0.0, 0.0, 0.0, 0.0, 0.0, 0.0, 0.0, 0.0, 0.0, 0.0, 0.0, 0.0, 0.0, 0.0, 0.0], "parents": [2147483647, 0, 0, 1, 1, 2, 2, 3, 3, 4, 4, 5, 5, 6, 6, 7, 7, 8, 8, 9, 9, 10, 10, 11, 11, 12, 12, 13, 13, 14, 14], "right_children": [2, 4, 6, 8, 10, 12, 14, 16, 18, 20, 22, 24, 26, 28, 30, -1, -1, -1, -1, -1, -1, -1, -1, -1, -1, -1, -1, -1, -1, -1, -1], "split_conditions": [0.22250591, 1.1848735, -0.19368753, 0.75834435, -0.46604455, 1.1135442, 0.3481101, 0.8282373, -0.23066284, -0.5354663, 0.2026846, 1.6606565, -1.409649, 0.8337528, 0.2328416, -0.092133045, -0.051558923, -0.08791096, 0.019674882, -0.08591482, -0.01959868, -0.004120296, 0.113778934, -0.08278666, 0.0046898634, -0.045997795, 0.08018308, 0.012648013, 0.10673857, 0.08223902, 0.13409443], "split_indices": [0, 8, 8, 8, 1, 2, 2, 2, 0, 0, 5, 1, 8, 8, 8, 0, 0, 0, 0, 0, 0, 0, 0, 0, 0, 0, 0, 0, 0, 0, 0], "split_type": [0, 0, 0, 0, 0, 0, 0, 0, 0, 0, 0, 0, 0, 0, 0, 0, 0, 0, 0, 0, 0, 0, 0, 0, 0, 0, 0, 0, 0, 0, 0], "sum_hessian": [1289.9719, 602.96405, 687.0079, 479.49826, 123.46576, 242.86943, 444.13843, 397.01367, 82.4846, 60.351196, 63.114563, 146.58057, 96.28885, 138.4912, 305.64722, 387.07843, 9.935264, 57.688194, 24.796402, 51.768772, 8.582424, 33.200783, 29.913778, 132.80972, 13.770847, 18.257746, 78.031105, 70.62996, 67.86124, 60.491142, 245.15608], "tree_param": {"num_deleted": "0", "num_feature": "10", "num_nodes": "31", "size_leaf_vector": "1"}}, {"base_weights": [-0.01554794, -0.89233375, 0.6623122, -1.1097554, -0.3287713, -0.119321845, 1.2852029, -0.09167286, -0.8818315, -0.75871664, 0.78230566, -0.8440327, 0.65014344, 0.8529232, 1.5408976, -0.08562541, -0.0020076502, -0.087948084, -0.023172673, -0.025553074, 0.09549549, -0.08332835, -0.023136292, -0.0063840603, 0.1079981, 0.022003898, 0.11406059, 0.08389432, 0.1279037], "categories": [], "categories_nodes": [], "categories_segments": [], "categories_sizes": [], "default_left": [0, 0, 0, 0, 0, 0, 0, 0, 0, 0, 0, 0, 0, 0, 0, 0, 0, 0, 0, 0, 0, 0, 0, 0, 0, 0, 0, 0, 0], "id": 8, "left_children": [1, 3, 5, 7, 9, 11, 13, -1, 15, 17, 19, 21, 23, 25, 27, -1, -1, -1, -1, -1, -1, -1, -1, -1, -1, -1, -1, -1, -1], "loss_changes": [744.93976, 66.598175, 344.3232, 2.2358093, 73.951225, 175.88011, 42.17804, 0.0, 9.3832855, 17.453117, 20.022902, 17.49559, 78.29906, 48.759552, 5.3340454, 0.0, 0.0, 0.0, 0.0, 0.0, 0.0, 0.0, 0.0, 0.0, 0.0, 0.0, 0.0, 0.0, 0.0], "parents": [2147483647, 0, 0, 1, 1, 2, 2, 3, 3, 4, 4, 5, 5, 6, 6, 8, 8, 9, 9, 10, 10, 11, 11, 12, 12, 13, 13, 14, 14], "right_children": [2, 4, 6, 8, 10, 12, 14, -1, 16, 18, 20, 22, 24, 26, 28, -1, -1, -1, -1, -1, -1, -1, -1, -1, -1, -1, -1, -1, -1], "split_conditions": [0.10949031, 0.9939958, 0.12679845, 0.6028144, -0.18062802, 1.0447443, 0.679172, -0.09167286, -0.15105365, -0.6335906, -0.8550851, 0.83881044, -0.81109434, 0.0025615888, 0.3153196, -0.08562541, -0.0020076502, -0.087948084, -0.023172673, -0.025553074, 0.09549549, -0.08332835, -0.023136292, -0.0063840603, 0.1079981, 0.022003898, 0.11406059, 0.08389432, 0.1279037], "split_indices": [1, 8, 8, 8, 2, 1, 1, 0, 1, 0, 9, 5, 8, 5, 8, 0, 0, 0, 0, 0, 0, 0, 0, 0, 0, 0, 0, 0, 0], "split_type": [0, 0, 0, 0, 0, 0, 0, 0, 0, 0, 0, 0, 0, 0, 0, 0, 0, 0, 0, 0, 0, 0, 0, 0, 0, 0, 0, 0, 0], "sum_hessian": [1251.3994, 545.49994, 705.8994, 392.9364, 152.56357, 313.41687, 392.48257, 335.66302, 57.273357, 110.22697, 42.336594, 161.35234, 152.06451, 147.48277, 244.9998, 46.740845, 10.53251, 63.076492, 47.150475, 11.571384, 30.765211, 118.336136, 43.016205, 74.86466, 77.19985, 74.15522, 73.327545, 27.797264, 217.20255], "tree_param": {"num_deleted": "0", "num_feature": "10", "num_nodes": "29", "size_leaf_vector": "1"}}, {"base_weights": [-0.015825473, -0.87575215, 0.6169516, -1.0260246, -0.08362723, -0.41396385, 1.0493572, -1.1224147, -0.6940017, -0.8473377, 0.732058, -0.8874912, 0.6931885, 0.57260984, 1.3983122, -0.0903554, -0.024939604, -0.081496164, 0.019764151, -0.087136276, -0.010568935, -0.0027652287, 0.11321083, -0.086450174, -0.014823543, -0.012378377, 0.0991881, -0.024685284, 0.08563632, 0.0898752, 0.1293807], "categories": [], "categories_nodes": [], "categories_segments": [], "categories_sizes": [], "default_left": [0, 0, 0, 0, 0, 0, 0, 0, 0, 0, 0, 0, 0, 0, 0, 0, 0, 0, 0, 0, 0, 0, 0, 0, 0, 0, 0, 0, 0, 0, 0], "id": 9, "left_children": [1, 3, 5, 7, 9, 11, 13, 15, 17, 19, 21, 23, 25, 27, 29, -1, -1, -1, -1, -1, -1, -1, -1, -1, -1, -1, -1, -1, -1, -1, -1], "loss_changes": [660.44885, 61.15918, 312.13544, 13.058899, 52.40716, 109.31602, 81.1994, 1.5478516, 30.77813, 7.3633556, 21.380142, 19.554688, 29.242971, 92.45481, 15.268799, 0.0, 0.0, 0.0, 0.0, 0.0, 0.0, 0.0, 0.0, 0.0, 0.0, 0.0, 0.0, 0.0, 0.0, 0.0, 0.0], "parents": [2147483647, 0, 0, 1, 1, 2, 2, 3, 3, 4, 4, 5, 5, 6, 6, 7, 7, 8, 8, 9, 9, 10, 10, 11, 11, 12, 12, 13, 13, 14, 14], "right_children": [2, 4, 6, 8, 10, 12, 14, 16, 18, 20, 22, 24, 26, 28, 30, -1, -1, -1, -1, -1, -1, -1, -1, -1, -1, -1, -1, -1, -1, -1, -1], "split_conditions": [0.14535162, 1.3121252, -0.4175564, 0.75834435, -0.49425644, 1.4340334, 0.7568907, 1.009085, -0.1700999, -0.54545146, 0.05792703, 1.3813167, 1.4874561, 0.55097103, -0.2021752, -0.0903554, -0.024939604, -0.081496164, 0.019764151, -0.087136276, -0.010568935, -0.0027652287, 0.11321083, -0.086450174, -0.014823543, -0.012378377, 0.0991881, -0.024685284, 0.08563632, 0.0898752, 0.1293807], "split_indices": [0, 8, 8, 8, 2, 2, 1, 2, 1, 0, 5, 1, 1, 8, 5, 0, 0, 0, 0, 0, 0, 0, 0, 0, 0, 0, 0, 0, 0, 0, 0], "split_type": [0, 0, 0, 0, 0, 0, 0, 0, 0, 0, 0, 0, 0, 0, 0, 0, 0, 0, 0, 0, 0, 0, 0, 0, 0, 0, 0, 0, 0, 0, 0], "sum_hessian": [1211.7509, 513.5146, 698.23627, 431.3826, 82.132, 206.33868, 491.89758, 332.47943, 98.90315, 42.39736, 39.734646, 144.66435, 61.67432, 208.99986, 282.89774, 329.232, 3.2474313, 73.47045, 25.432703, 31.292421, 11.104941, 19.169714, 20.564932, 113.03554, 31.62882, 24.4568, 37.21752, 75.58893, 133.41093, 128.14801, 154.74973], "tree_param": {"num_deleted": "0", "num_feature": "10", "num_nodes": "31", "size_leaf_vector": "1"}}, {"base_weights": [-0.016117219, -0.8514316, 0.58440465, -1.0901339, -0.3195083, -0.07204589, 1.1740707, -0.08969172, -0.8660477, -0.7275109, 0.66043323, -0.8393463, 0.5151003, 0.48438007, 1.3468177, -0.085815914, -0.0075540445, -0.08726402, -0.025724446, -0.0013352577, 0.09932358, -0.07763417, 0.002489355, -0.024021627, 0.07794688, 0.002757923, 0.1016008, 0.07264633, 0.11737466], "categories": [], "categories_nodes": [], "categories_segments": [], "categories_sizes": [], "default_left": [0, 0, 0, 0, 0, 0, 0, 0, 0, 0, 0, 0, 0, 0, 0, 0, 0, 0, 0, 0, 0, 0, 0, 0, 0, 0, 0, 0, 0], "id": 10, "left_children": [1, 3, 5, 7, 9, 11, 13, -1, 15, 17, 19, 21, 23, 25, 27, -1, -1, -1, -1, -1, -1, -1, -1, -1, -1, -1, -1, -1, -1], "loss_changes": [588.7807, 61.98175, 264.40952, 1.3808899, 61.84108, 146.43257, 42.213135, 0.0, 7.160034, 15.699753, 17.978888, 16.102943, 69.26882, 25.980371, 13.832214, 0.0, 0.0, 0.0, 0.0, 0.0, 0.0, 0.0, 0.0, 0.0, 0.0, 0.0, 0.0, 0.0, 0.0], "parents": [2147483647, 0, 0, 1, 1, 2, 2, 3, 3, 4, 4, 5, 5, 6, 6, 8, 8, 9, 9, 10, 10, 11, 11, 12, 12, 13, 13, 14, 14], "right_children": [2, 4, 6, 8, 10, 12, 14, -1, 16, 18, 20, 22, 24, 26, 28, -1, -1, -1, -1, -1, -1, -1, -1, -1, -1, -1, -1, -1, -1], "split_conditions": [0.10949031, 0.94450897, 0.2328416, 0.6028144, -0.18062802, 0.9338941, 0.082632445, -0.08969172, -0.16396093, -0.75877196, 0.05174018, 1.2966684, -0.9807634, 0.40338433, -0.986519, -0.085815914, -0.0075540445, -0.08726402, -0.025724446, -0.0013352577, 0.09932358, -0.07763417, 0.002489355, -0.024021627, 0.07794688, 0.002757923, 0.1016008, 0.07264633, 0.11737466], "split_indices": [1, 8, 8, 8, 2, 1, 2, 0, 0, 2, 9, 0, 8, 5, 5, 0, 0, 0, 0, 0, 0, 0, 0, 0, 0, 0, 0, 0, 0], "split_type": [0, 0, 0, 0, 0, 0, 0, 0, 0, 0, 0, 0, 0, 0, 0, 0, 0, 0, 0, 0, 0, 0, 0, 0, 0, 0, 0, 0, 0], "sum_hessian": [1171.7559, 489.89853, 681.8573, 337.42746, 152.47108, 323.07224, 358.78503, 292.88953, 44.53794, 107.832275, 44.638805, 139.86409, 183.20816, 72.62693, 286.1581, 34.82195, 9.715994, 56.016296, 51.81598, 21.064854, 23.573952, 121.459045, 18.405046, 66.1339, 117.07425, 46.844448, 25.782486, 63.44434, 222.71378], "tree_param": {"num_deleted": "0", "num_feature": "10", "num_nodes": "29", "size_leaf_vector": "1"}}, {"base_weights": [-0.016224947, -0.7080851, 0.652055, -1.0628023, -0.12710539, -0.36074778, 1.0051502, -1.07258, 0.054298934, -0.7214997, 0.7375013, -0.86042, 0.5558411, 0.66327506, 1.3408988, -0.08906403, -0.06732175, -0.0853889, -0.02485089, 0.0077919853, 0.09837829, -0.07681535, 0.041270737, -0.00989455, 0.09864614, 0.00041766695, 0.08530175, 0.08334825, 0.12229845], "categories": [], "categories_nodes": [], "categories_segments": [], "categories_sizes": [], "default_left": [0, 0, 0, 0, 0, 0, 0, 0, 0, 0, 0, 0, 0, 0, 0, 0, 0, 0, 0, 0, 0, 0, 0, 0, 0, 0, 0, 0, 0], "id": 11, "left_children": [1, 3, 5, 7, 9, 11, 13, 15, -1, 17, 19, 21, 23, 25, 27, -1, -1, -1, -1, -1, -1, -1, -1, -1, -1, -1, -1, -1, -1], "loss_changes": [524.8256, 114.798645, 206.85263, 6.6222534, 109.76955, 69.17744, 48.284973, 2.3053894, 0.0, 17.639778, 27.320274, 13.879715, 24.78651, 56.81109, 10.492981, 0.0, 0.0, 0.0, 0.0, 0.0, 0.0, 0.0, 0.0, 0.0, 0.0, 0.0, 0.0, 0.0, 0.0], "parents": [2147483647, 0, 0, 1, 1, 2, 2, 3, 3, 4, 4, 5, 5, 6, 6, 7, 7, 9, 9, 10, 10, 11, 11, 12, 12, 13, 13, 14, 14], "right_children": [2, 4, 6, 8, 10, 12, 14, 16, -1, 18, 20, 22, 24, 26, 28, -1, -1, -1, -1, -1, -1, -1, -1, -1, -1, -1, -1, -1, -1], "split_conditions": [0.41827637, 0.75834435, -0.5636603, 1.5558954, -0.20844753, 1.4340334, 0.8102069, 0.37658897, 0.054298934, -0.6335906, -0.029959535, 1.9098384, 0.11732954, 0.41900626, -0.46343088, -0.08906403, -0.06732175, -0.0853889, -0.02485089, 0.0077919853, 0.09837829, -0.07681535, 0.041270737, -0.00989455, 0.09864614, 0.00041766695, 0.08530175, 0.08334825, 0.12229845], "split_indices": [0, 8, 8, 2, 2, 2, 2, 8, 0, 0, 0, 1, 5, 8, 5, 0, 0, 0, 0, 0, 0, 0, 0, 0, 0, 0, 0, 0, 0], "split_type": [0, 0, 0, 0, 0, 0, 0, 0, 0, 0, 0, 0, 0, 0, 0, 0, 0, 0, 0, 0, 0, 0, 0, 0, 0, 0, 0, 0, 0], "sum_hessian": [1133.1123, 556.7047, 576.40753, 345.1463, 211.5584, 149.00018, 427.40738, 343.60132, 1.5449824, 125.46799, 86.09041, 96.47097, 52.52922, 213.24585, 214.16151, 288.8735, 54.727814, 67.255226, 58.21276, 37.944523, 48.145885, 90.23215, 6.2388225, 26.62833, 25.900888, 81.37745, 131.86841, 85.146805, 129.01471], "tree_param": {"num_deleted": "0", "num_feature": "10", "num_nodes": "29", "size_leaf_vector": "1"}}, {"base_weights": [-0.016146682, -0.80437994, 0.5245175, -1.00404, -0.084717035, -0.09196529, 1.039246, -0.08784244, -0.7129248, -0.84777296, 0.57049525, -0.6357231, 0.6382733, 0.5722112, 1.2585481, -0.0808177, 0.0074509857, -0.07405772, 0.04406855, -0.038008668, 0.07677383, -0.073938176, 0.00050466054, -0.05176963, 0.07175765, 0.011823409, 0.10053156, 0.11368654, 0.07968567], "categories": [], "categories_nodes": [], "categories_segments": [], "categories_sizes": [], "default_left": [0, 0, 0, 0, 0, 0, 0, 0, 0, 0, 0, 0, 0, 0, 0, 0, 0, 0, 0, 0, 0, 0, 0, 0, 0, 0, 0, 0, 0], "id": 12, "left_children": [1, 3, 5, 7, 9, 11, 13, -1, 15, 17, 19, 21, 23, 25, 27, -1, -1, -1, -1, -1, -1, -1, -1, -1, -1, -1, -1, -1, -1], "loss_changes": [467.7473, 64.07687, 206.68282, 8.779327, 49.515953, 118.39812, 35.627228, 0.0, 21.21666, 5.493248, 22.170422, 31.647835, 42.920803, 33.28608, 8.851044, 0.0, 0.0, 0.0, 0.0, 0.0, 0.0, 0.0, 0.0, 0.0, 0.0, 0.0, 0.0, 0.0, 0.0], "parents": [2147483647, 0, 0, 1, 1, 2, 2, 3, 3, 4, 4, 5, 5, 6, 6, 8, 8, 9, 9, 10, 10, 11, 11, 12, 12, 13, 13, 14, 14], "right_children": [2, 4, 6, 8, 10, 12, 14, -1, 16, 18, 20, 22, 24, 26, 28, -1, -1, -1, -1, -1, -1, -1, -1, -1, -1, -1, -1, -1, -1], "split_conditions": [0.12046108, 1.2084386, 0.16921571, 0.64758813, -0.46604455, 1.2073182, 0.3481101, -0.08784244, -0.102680795, 1.5909218, -0.81350195, 0.7205822, -1.409649, 0.40338433, 0.289583, -0.0808177, 0.0074509857, -0.07405772, 0.04406855, -0.038008668, 0.07677383, -0.073938176, 0.00050466054, -0.05176963, 0.07175765, 0.011823409, 0.10053156, 0.11368654, 0.07968567], "split_indices": [1, 8, 8, 8, 1, 1, 2, 0, 0, 4, 5, 5, 8, 5, 3, 0, 0, 0, 0, 0, 0, 0, 0, 0, 0, 0, 0, 0, 0], "split_type": [0, 0, 0, 0, 0, 0, 0, 0, 0, 0, 0, 0, 0, 0, 0, 0, 0, 0, 0, 0, 0, 0, 0, 0, 0, 0, 0, 0, 0], "sum_hessian": [1095.5718, 445.5368, 650.03503, 348.46506, 97.07175, 296.15536, 353.87964, 261.32184, 87.1432, 44.709484, 52.362263, 169.82669, 126.32869, 114.22682, 239.6528, 63.47771, 23.665497, 42.66954, 2.0399413, 14.143127, 38.219135, 116.8702, 52.95649, 20.913584, 105.4151, 71.25647, 42.970352, 145.27814, 94.37467], "tree_param": {"num_deleted": "0", "num_feature": "10", "num_nodes": "29", "size_leaf_vector": "1"}}, {"base_weights": [-0.016117731, -0.7864354, 0.49899668, -1.0659149, -0.3196487, -0.3617125, 0.85186774, -1.0801165, -0.095067285, -0.89721954, 0.2907511, -0.86987007, 0.47563443, 0.48506406, 1.2336737, -0.086920105, -0.01835112, -0.05153689, 0.06197187, -0.08099863, -0.0028570157, -0.04588189, 0.06279847, -0.083257385, -0.023248084, 0.10149988, 0.0020459685, -0.011990459, 0.080387115, 0.07489061, 0.11770374], "categories": [], "categories_nodes": [], "categories_segments": [], "categories_sizes": [], "default_left": [0, 0, 0, 0, 0, 0, 0, 0, 0, 0, 0, 0, 0, 0, 0, 0, 0, 0, 0, 0, 0, 0, 0, 0, 0, 0, 0, 0, 0, 0, 0], "id": 13, "left_children": [1, 3, 5, 7, 9, 11, 13, 15, 17, 19, 21, 23, 25, 27, 29, -1, -1, -1, -1, -1, -1, -1, -1, -1, -1, -1, -1, -1, -1, -1, -1], "loss_changes": [420.82004, 55.101105, 193.34006, 3.556488, 56.875015, 79.34601, 62.571198, 1.1710205, 2.850134, 8.181549, 34.122025, 11.157639, 25.2058, 76.61694, 14.202728, 0.0, 0.0, 0.0, 0.0, 0.0, 0.0, 0.0, 0.0, 0.0, 0.0, 0.0, 0.0, 0.0, 0.0, 0.0, 0.0], "parents": [2147483647, 0, 0, 1, 1, 2, 2, 3, 3, 4, 4, 5, 5, 6, 6, 7, 7, 8, 8, 9, 9, 10, 10, 11, 11, 12, 12, 13, 13, 14, 14], "right_children": [2, 4, 6, 8, 10, 12, 14, 16, 18, 20, 22, 24, 26, 28, 30, -1, -1, -1, -1, -1, -1, -1, -1, -1, -1, -1, -1, -1, -1, -1, -1], "split_conditions": [0.16864677, 0.79840505, -0.4175564, 1.009085, -0.44133663, 1.4000499, 1.0057942, 0.158064, 0.39072806, 1.3497874, -0.4074887, 1.2795827, -0.6382848, 0.6593707, -0.2021752, -0.086920105, -0.01835112, -0.05153689, 0.06197187, -0.08099863, -0.0028570157, -0.04588189, 0.06279847, -0.083257385, -0.023248084, 0.10149988, 0.0020459685, -0.011990459, 0.080387115, 0.07489061, 0.11770374], "split_indices": [0, 8, 8, 2, 2, 1, 0, 0, 8, 5, 5, 2, 3, 8, 5, 0, 0, 0, 0, 0, 0, 0, 0, 0, 0, 0, 0, 0, 0, 0, 0], "split_type": [0, 0, 0, 0, 0, 0, 0, 0, 0, 0, 0, 0, 0, 0, 0, 0, 0, 0, 0, 0, 0, 0, 0, 0, 0, 0, 0, 0, 0, 0, 0], "sum_hessian": [1058.5408, 423.98056, 634.5602, 264.39545, 159.58514, 184.50291, 450.05725, 260.4727, 3.9227417, 81.756165, 77.82898, 114.7974, 69.70551, 230.69623, 219.36102, 258.2573, 2.2154033, 2.5634491, 1.3592924, 71.953995, 9.802169, 28.256147, 49.57283, 88.03585, 26.761555, 24.57658, 45.128933, 104.16381, 126.53241, 99.59371, 119.76731], "tree_param": {"num_deleted": "0", "num_feature": "10", "num_nodes": "31", "size_leaf_vector": "1"}}, {"base_weights": [-0.016087234, -0.7638801, 0.48027673, -0.94873023, -0.08337424, -0.06136819, 0.9699176, -1.0023566, -0.05840763, -0.8029782, 0.61432725, -0.7671571, 0.46644586, -0.06801649, 1.0872954, -0.08223292, -0.01246437, -0.07258074, 0.062012862, -0.0759684, 0.0063294843, 0.07457127, -0.044537142, -0.06977414, 0.03324459, -0.02024006, 0.06922277, -0.074501544, 0.030192295, 0.060330227, 0.10171582], "categories": [], "categories_nodes": [], "categories_segments": [], "categories_sizes": [], "default_left": [0, 0, 0, 0, 0, 0, 0, 0, 0, 0, 0, 0, 0, 0, 0, 0, 0, 0, 0, 0, 0, 0, 0, 0, 0, 0, 0, 0, 0, 0, 0], "id": 14, "left_children": [1, 3, 5, 7, 9, 11, 13, 15, 17, 19, 21, 23, 25, 27, 29, -1, -1, -1, -1, -1, -1, -1, -1, -1, -1, -1, -1, -1, -1, -1, -1], "loss_changes": [380.53387, 51.37021, 163.48674, 15.293335, 44.908546, 109.698135, 39.510895, 6.3993835, 14.379866, 5.7637367, 17.44624, 16.007843, 48.58325, 13.35902, 16.88739, 0.0, 0.0, 0.0, 0.0, 0.0, 0.0, 0.0, 0.0, 0.0, 0.0, 0.0, 0.0, 0.0, 0.0, 0.0, 0.0], "parents": [2147483647, 0, 0, 1, 1, 2, 2, 3, 3, 4, 4, 5, 5, 6, 6, 7, 7, 8, 8, 9, 9, 10, 10, 11, 11, 12, 12, 13, 13, 14, 14], "right_children": [2, 4, 6, 8, 10, 12, 14, 16, 18, 20, 22, 24, 26, 28, 30, -1, -1, -1, -1, -1, -1, -1, -1, -1, -1, -1, -1, -1, -1, -1, -1], "split_conditions": [-0.03178316, 1.2084386, 0.21870251, 1.0241674, -0.3955249, 0.978229, -0.029959535, 0.77182096, 0.19278085, 1.6326112, 0.87541324, 1.2907178, -0.9807634, -0.47957915, 0.74420524, -0.08223292, -0.01246437, -0.07258074, 0.062012862, -0.0759684, 0.0063294843, 0.07457127, -0.044537142, -0.06977414, 0.03324459, -0.02024006, 0.06922277, -0.074501544, 0.030192295, 0.060330227, 0.10171582], "split_indices": [2, 8, 8, 0, 1, 0, 0, 1, 8, 8, 3, 1, 8, 5, 8, 0, 0, 0, 0, 0, 0, 0, 0, 0, 0, 0, 0, 0, 0, 0, 0], "split_type": [0, 0, 0, 0, 0, 0, 0, 0, 0, 0, 0, 0, 0, 0, 0, 0, 0, 0, 0, 0, 0, 0, 0, 0, 0, 0, 0, 0, 0, 0, 0], "sum_hessian": [1023.2192, 408.00452, 615.21466, 320.54004, 87.46449, 292.51105, 322.70358, 302.21124, 18.328798, 42.982143, 44.482346, 124.96088, 167.55019, 32.82889, 289.8747, 293.14777, 9.063475, 9.037349, 9.2914505, 36.790157, 6.191986, 35.147526, 9.334821, 115.01098, 9.949897, 59.887527, 107.66265, 10.802395, 22.026497, 105.00155, 184.87314], "tree_param": {"num_deleted": "0", "num_feature": "10", "num_nodes": "31", "size_leaf_vector": "1"}}, {"base_weights": [-0.01602117, -0.59287924, 0.58471304, -0.9632968, -0.005361606, -0.28995827, 0.91030043, -1.0465155, -0.6189356, -0.8388917, 0.47445148, -0.70911753, 0.6287636, 0.48104995, 1.1685333, -0.08444863, -0.009174651, -0.07691977, 0.00877243, -0.07968802, -0.013838909, -0.009126367, 0.07775095, -0.007952242, -0.075438574, -0.001681828, 0.10518654, -0.005820701, 0.0940713, 0.032601215, 0.10059018], "categories": [], "categories_nodes": [], "categories_segments": [], "categories_sizes": [], "default_left": [0, 0, 0, 0, 0, 0, 0, 0, 0, 0, 0, 0, 0, 0, 0, 0, 0, 0, 0, 0, 0, 0, 0, 0, 0, 0, 0, 0, 0, 0, 0], "id": 15, "left_children": [1, 3, 5, 7, 9, 11, 13, 15, 17, 19, 21, 23, 25, 27, 29, -1, -1, -1, -1, -1, -1, -1, -1, -1, -1, -1, -1, -1, -1, -1, -1], "loss_changes": [343.35904, 109.992935, 138.49185, 8.235779, 78.96685, 51.44156, 38.67276, 1.9819641, 15.774599, 7.3789635, 36.79898, 12.93993, 18.759584, 51.901283, 14.38269, 0.0, 0.0, 0.0, 0.0, 0.0, 0.0, 0.0, 0.0, 0.0, 0.0, 0.0, 0.0, 0.0, 0.0, 0.0, 0.0], "parents": [2147483647, 0, 0, 1, 1, 2, 2, 3, 3, 4, 4, 5, 5, 6, 6, 7, 7, 8, 8, 9, 9, 10, 10, 11, 11, 12, 12, 13, 13, 14, 14], "right_children": [2, 4, 6, 8, 10, 12, 14, 16, 18, 20, 22, 24, 26, 28, 30, -1, -1, -1, -1, -1, -1, -1, -1, -1, -1, -1, -1, -1, -1, -1, -1], "split_conditions": [0.45413825, 0.866744, -0.5636603, 0.44728443, -0.53872585, 1.622202, -0.47957915, 1.1373059, 0.109782614, 1.1909757, -0.107592575, -0.852968, 0.11732954, 0.64758813, -0.009653048, -0.08444863, -0.009174651, -0.07691977, 0.00877243, -0.07968802, -0.013838909, -0.009126367, 0.07775095, -0.007952242, -0.075438574, -0.001681828, 0.10518654, -0.005820701, 0.0940713, 0.032601215, 0.10059018], "split_indices": [1, 8, 8, 8, 2, 2, 5, 2, 2, 9, 5, 3, 5, 8, 2, 0, 0, 0, 0, 0, 0, 0, 0, 0, 0, 0, 0, 0, 0, 0, 0], "split_type": [0, 0, 0, 0, 0, 0, 0, 0, 0, 0, 0, 0, 0, 0, 0, 0, 0, 0, 0, 0, 0, 0, 0, 0, 0, 0, 0, 0, 0, 0, 0], "sum_hessian": [988.82513, 504.44363, 484.3815, 308.99142, 195.45222, 131.42511, 352.9564, 247.21114, 61.780293, 71.13255, 124.319664, 90.40617, 41.01893, 133.65305, 219.30334, 244.6907, 2.5204232, 41.805115, 19.975176, 57.145615, 13.98694, 57.298603, 67.021065, 25.458282, 64.9479, 21.56434, 19.454586, 74.87265, 58.78039, 23.509836, 195.7935], "tree_param": {"num_deleted": "0", "num_feature": "10", "num_nodes": "31", "size_leaf_vector": "1"}}, {"base_weights": [-0.015860617, -0.83712065, 0.37464607, -1.0164516, -0.2538926, -0.06597542, 0.8960791, -1.0589427, -0.7320494, -0.80404943, 0.31522703, -0.5130827, 0.66282356, -0.14314891, 1.0283067, -0.08506997, -0.025284233, -0.07861978, -0.01367417, -0.085597135, -0.009967909, -0.040876254, 0.069277786, -0.06653953, 0.006322568, 0.018195577, 0.0932213, 0.06103746, -0.05393773, 0.098730475, 0.058485202], "categories": [], "categories_nodes": [], "categories_segments": [], "categories_sizes": [], "default_left": [0, 0, 0, 0, 0, 0, 0, 0, 0, 0, 0, 0, 0, 0, 0, 0, 0, 0, 0, 0, 0, 0, 0, 0, 0, 0, 0, 0, 0, 0, 0], "id": 16, "left_children": [1, 3, 5, 7, 9, 11, 13, 15, 17, 19, 21, 23, 25, 27, 29, -1, -1, -1, -1, -1, -1, -1, -1, -1, -1, -1, -1, -1, -1, -1, -1], "loss_changes": [307.16867, 32.024048, 149.20538, 2.073532, 23.39773, 115.29157, 41.011826, 0.33181763, 4.5981483, 6.708351, 17.301443, 41.42607, 29.172302, 17.089663, 15.2453, 0.0, 0.0, 0.0, 0.0, 0.0, 0.0, 0.0, 0.0, 0.0, 0.0, 0.0, 0.0, 0.0, 0.0, 0.0, 0.0], "parents": [2147483647, 0, 0, 1, 1, 2, 2, 3, 3, 4, 4, 5, 5, 6, 6, 7, 7, 8, 8, 9, 9, 10, 10, 11, 11, 12, 12, 13, 13, 14, 14], "right_children": [2, 4, 6, 8, 10, 12, 14, 16, 18, 20, 22, 24, 26, 28, 30, -1, -1, -1, -1, -1, -1, -1, -1, -1, -1, -1, -1, -1, -1, -1, -1], "split_conditions": [-0.029959535, 1.2084386, 0.41900626, -0.12365021, -0.5354663, 1.1373059, -0.2991852, 1.6894774, 0.79840505, 0.77191055, -0.36164838, 1.109286, 0.13693812, -0.42724037, 0.23136383, -0.08506997, -0.025284233, -0.07861978, -0.01367417, -0.085597135, -0.009967909, -0.040876254, 0.069277786, -0.06653953, 0.006322568, 0.018195577, 0.0932213, 0.06103746, -0.05393773, 0.098730475, 0.058485202], "split_indices": [0, 8, 8, 1, 0, 2, 2, 5, 8, 5, 9, 0, 5, 3, 3, 0, 0, 0, 0, 0, 0, 0, 0, 0, 0, 0, 0, 0, 0, 0, 0], "split_type": [0, 0, 0, 0, 0, 0, 0, 0, 0, 0, 0, 0, 0, 0, 0, 0, 0, 0, 0, 0, 0, 0, 0, 0, 0, 0, 0, 0, 0, 0, 0], "sum_hessian": [955.80634, 307.65173, 648.1546, 234.7332, 72.91856, 351.77286, 296.3817, 201.85211, 32.881084, 36.867077, 36.051476, 218.20398, 133.56888, 33.444653, 262.93707, 200.2262, 1.6259074, 22.207731, 10.673351, 26.083931, 10.783147, 14.448838, 21.602638, 141.59587, 76.60811, 72.33849, 61.23039, 12.197168, 21.247484, 153.49673, 109.44034], "tree_param": {"num_deleted": "0", "num_feature": "10", "num_nodes": "31", "size_leaf_vector": "1"}}, {"base_weights": [-0.015792573, -0.7111604, 0.41190955, -0.90680724, -0.06291006, -0.31923983, 0.70587426, -1.0154479, -0.42277277, -0.7538971, 0.5412138, -0.6920222, 0.6213279, 0.26172525, 1.0297571, -0.08412211, -0.056292985, -0.08022107, 0.006580579, -0.073065296, 0.010362668, 0.0041145114, 0.0952336, -0.00454929, -0.07391642, 0.009699236, 0.093514666, -0.026166167, 0.060717452, 0.034763087, 0.0917459], "categories": [], "categories_nodes": [], "categories_segments": [], "categories_sizes": [], "default_left": [0, 0, 0, 0, 0, 0, 0, 0, 0, 0, 0, 0, 0, 0, 0, 0, 0, 0, 0, 0, 0, 0, 0, 0, 0, 0, 0, 0, 0, 0, 0], "id": 17, "left_children": [1, 3, 5, 7, 9, 11, 13, 15, 17, 19, 21, 23, 25, 27, 29, -1, -1, -1, -1, -1, -1, -1, -1, -1, -1, -1, -1, -1, -1, -1, -1], "loss_changes": [276.04593, 44.7726, 123.74954, 13.844925, 35.06467, 58.456947, 58.741257, 1.745758, 15.158969, 5.6312523, 14.208309, 17.476868, 12.8664875, 51.288696, 16.00792, 0.0, 0.0, 0.0, 0.0, 0.0, 0.0, 0.0, 0.0, 0.0, 0.0, 0.0, 0.0, 0.0, 0.0, 0.0, 0.0], "parents": [2147483647, 0, 0, 1, 1, 2, 2, 3, 3, 4, 4, 5, 5, 6, 6, 7, 7, 8, 8, 9, 9, 10, 10, 11, 11, 12, 12, 13, 13, 14, 14], "right_children": [2, 4, 6, 8, 10, 12, 14, 16, 18, 20, 22, 24, 26, 28, 30, -1, -1, -1, -1, -1, -1, -1, -1, -1, -1, -1, -1, -1, -1, -1, -1], "split_conditions": [-0.03178316, 1.2084386, -0.4316955, 0.43357468, -0.3955249, 1.622202, 0.679172, 1.3827817, 0.09616376, 1.6326112, 0.43148535, -0.852968, 0.11732954, 0.74420524, -1.2379704, -0.08412211, -0.056292985, -0.08022107, 0.006580579, -0.073065296, 0.010362668, 0.0041145114, 0.0952336, -0.00454929, -0.07391642, 0.009699236, 0.093514666, -0.026166167, 0.060717452, 0.034763087, 0.0917459], "split_indices": [2, 8, 8, 0, 1, 2, 1, 9, 8, 8, 9, 3, 5, 8, 5, 0, 0, 0, 0, 0, 0, 0, 0, 0, 0, 0, 0, 0, 0, 0, 0], "split_type": [0, 0, 0, 0, 0, 0, 0, 0, 0, 0, 0, 0, 0, 0, 0, 0, 0, 0, 0, 0, 0, 0, 0, 0, 0, 0, 0, 0, 0, 0, 0], "sum_hessian": [926.18036, 352.46768, 573.7127, 270.44614, 82.02153, 164.49486, 409.21783, 219.9752, 50.47093, 38.144524, 43.877007, 117.99375, 46.50111, 173.33171, 235.88612, 195.03415, 24.941057, 23.033297, 27.437632, 32.28476, 5.859764, 25.624367, 18.252638, 31.894588, 86.09917, 24.943485, 21.557627, 79.51614, 93.81557, 39.543125, 196.343], "tree_param": {"num_deleted": "0", "num_feature": "10", "num_nodes": "31", "size_leaf_vector": "1"}}, {"base_weights": [-0.015598493, -0.856863, 0.31724745, -0.9583274, -0.09429331, -0.1464258, 0.72973675, -1.0157301, -0.42121094, 0.5768053, -0.8879395, -0.7813674, 0.33632168, 0.37977543, 1.1046282, -0.08184531, -0.0010524282, -0.07096738, 0.030476801, -0.023601007, 0.11583186, -0.08623011, -0.02023631, -0.07209847, 0.00037891598, -0.007497271, 0.066788405, -0.014094231, 0.0706446, 0.06870837, 0.097166605], "categories": [], "categories_nodes": [], "categories_segments": [], "categories_sizes": [], "default_left": [0, 0, 0, 0, 0, 0, 0, 0, 0, 0, 0, 0, 0, 0, 0, 0, 0, 0, 0, 0, 0, 0, 0, 0, 0, 0, 0, 0, 0, 0, 0], "id": 18, "left_children": [1, 3, 5, 7, 9, 11, 13, 15, 17, 19, 21, 23, 25, 27, 29, -1, -1, -1, -1, -1, -1, -1, -1, -1, -1, -1, -1, -1, -1, -1, -1], "loss_changes": [251.34607, 19.598251, 123.12458, 6.493042, 17.018326, 93.3345, 44.26007, 1.4729309, 9.07613, 13.639811, 1.4873419, 12.390091, 37.209003, 49.864063, 3.3859558, 0.0, 0.0, 0.0, 0.0, 0.0, 0.0, 0.0, 0.0, 0.0, 0.0, 0.0, 0.0, 0.0, 0.0, 0.0, 0.0], "parents": [2147483647, 0, 0, 1, 1, 2, 2, 3, 3, 4, 4, 5, 5, 6, 6, 7, 7, 8, 8, 9, 9, 10, 10, 11, 11, 12, 12, 13, 13, 14, 14], "right_children": [2, 4, 6, 8, 10, 12, 14, 16, 18, 20, 22, 24, 26, 28, 30, -1, -1, -1, -1, -1, -1, -1, -1, -1, -1, -1, -1, -1, -1, -1, -1], "split_conditions": [-0.15105365, 1.4700117, 0.2328416, -0.029959535, -0.063370645, 0.9338941, 0.679172, 1.6992817, 1.0057783, -0.54545146, -0.27119833, 1.2966684, 0.13693812, -0.07702623, 0.6593707, -0.08184531, -0.0010524282, -0.07096738, 0.030476801, -0.023601007, 0.11583186, -0.08623011, -0.02023631, -0.07209847, 0.00037891598, -0.007497271, 0.066788405, -0.014094231, 0.0706446, 0.06870837, 0.097166605], "split_indices": [1, 8, 8, 0, 3, 1, 1, 5, 8, 0, 2, 0, 5, 5, 8, 0, 0, 0, 0, 0, 0, 0, 0, 0, 0, 0, 0, 0, 0, 0, 0], "split_type": [0, 0, 0, 0, 0, 0, 0, 0, 0, 0, 0, 0, 0, 0, 0, 0, 0, 0, 0, 0, 0, 0, 0, 0, 0, 0, 0, 0, 0, 0, 0], "sum_hessian": [895.6569, 253.46146, 642.1955, 223.47066, 29.990797, 302.6434, 339.55206, 201.0888, 22.381847, 16.398026, 13.592772, 130.44926, 172.19415, 176.65636, 162.8957, 199.60776, 1.4810425, 14.0918045, 8.290042, 8.526131, 7.8718953, 9.926173, 3.666598, 113.06317, 17.386091, 92.883965, 79.31018, 84.24481, 92.411545, 53.07398, 109.821724], "tree_param": {"num_deleted": "0", "num_feature": "10", "num_nodes": "31", "size_leaf_vector": "1"}}, {"base_weights": [-0.015294247, -0.7904667, 0.3200748, -0.98808354, -0.21998498, -0.42220503, 0.5670947, -1.0366465, -0.69500375, -0.7802413, 0.33358133, -0.89038104, 0.2628942, 0.13406211, 0.8710366, -0.08336579, -0.020258822, -0.07411369, -0.0068066465, -0.06964875, 0.04007121, -0.06296674, 0.06578419, -0.08173501, -0.027592573, 0.07671992, -0.01114079, -0.024337377, 0.050329108, 0.09132221, 0.0395439], "categories": [], "categories_nodes": [], "categories_segments": [], "categories_sizes": [], "default_left": [0, 0, 0, 0, 0, 0, 0, 0, 0, 0, 0, 0, 0, 0, 0, 0, 0, 0, 0, 0, 0, 0, 0, 0, 0, 0, 0, 0, 0, 0, 0], "id": 19, "left_children": [1, 3, 5, 7, 9, 11, 13, 15, 17, 19, 21, 23, 25, 27, 29, -1, -1, -1, -1, -1, -1, -1, -1, -1, -1, -1, -1, -1, -1, -1, -1], "loss_changes": [225.98055, 29.375992, 111.49867, 2.0503387, 21.604794, 49.014236, 59.86154, 0.43736267, 4.2553196, 4.430725, 19.99086, 6.134796, 17.632866, 41.225548, 26.703445, 0.0, 0.0, 0.0, 0.0, 0.0, 0.0, 0.0, 0.0, 0.0, 0.0, 0.0, 0.0, 0.0, 0.0, 0.0, 0.0], "parents": [2147483647, 0, 0, 1, 1, 2, 2, 3, 3, 4, 4, 5, 5, 6, 6, 7, 7, 8, 8, 9, 9, 10, 10, 11, 11, 12, 12, 13, 13, 14, 14], "right_children": [2, 4, 6, 8, 10, 12, 14, 16, 18, 20, 22, 24, 26, 28, 30, -1, -1, -1, -1, -1, -1, -1, -1, -1, -1, -1, -1, -1, -1, -1, -1], "split_conditions": [-0.029959535, 1.2084386, -0.5636603, -0.12365021, 0.2026846, 1.3813167, 0.45763114, 1.6894774, 0.74307436, 0.43265632, -0.75877196, 1.4340334, -0.6382848, 0.8502484, 0.289583, -0.08336579, -0.020258822, -0.07411369, -0.0068066465, -0.06964875, 0.04007121, -0.06296674, 0.06578419, -0.08173501, -0.027592573, 0.07671992, -0.01114079, -0.024337377, 0.050329108, 0.09132221, 0.0395439], "split_indices": [0, 8, 8, 1, 5, 1, 2, 5, 5, 2, 2, 2, 3, 8, 3, 0, 0, 0, 0, 0, 0, 0, 0, 0, 0, 0, 0, 0, 0, 0, 0], "split_type": [0, 0, 0, 0, 0, 0, 0, 0, 0, 0, 0, 0, 0, 0, 0, 0, 0, 0, 0, 0, 0, 0, 0, 0, 0, 0, 0, 0, 0, 0, 0], "sum_hessian": [867.2869, 261.49954, 605.78735, 193.67711, 67.822426, 151.08298, 454.7044, 163.97035, 29.706747, 33.504017, 34.318405, 89.572334, 61.510647, 188.12283, 266.58157, 162.51459, 1.4557742, 21.15946, 8.547288, 31.595762, 1.9082553, 10.236051, 24.082355, 71.49017, 18.082159, 22.016588, 39.494057, 99.98743, 88.13541, 153.98969, 112.59188], "tree_param": {"num_deleted": "0", "num_feature": "10", "num_nodes": "31", "size_leaf_vector": "1"}}, {"base_weights": [-0.015297974, -0.5753121, 0.41868615, -0.97846025, -0.09116084, -0.4026626, 0.6393186, -1.0015005, 0.1660694, -0.85902053, 0.2697287, -0.6247839, 1.1054965, 0.33956194, 1.0565064, -0.08116778, -0.022064276, -0.056861065, 0.06964418, -0.08447267, -0.030868819, -0.021333449, 0.06213023, -0.079046234, -0.01666593, 0.0064109988, 0.103397235, 0.0014569658, 0.06999746, 0.049708467, 0.09882835], "categories": [], "categories_nodes": [], "categories_segments": [], "categories_sizes": [], "default_left": [0, 0, 0, 0, 0, 0, 0, 0, 0, 0, 0, 0, 0, 0, 0, 0, 0, 0, 0, 0, 0, 0, 0, 0, 0, 0, 0, 0, 0, 0, 0], "id": 20, "left_children": [1, 3, 5, 7, 9, 11, 13, 15, 17, 19, 21, 23, 25, 27, 29, -1, -1, -1, -1, -1, -1, -1, -1, -1, -1, -1, -1, -1, -1, -1, -1], "loss_changes": [204.93376, 71.76647, 86.35078, 5.4607544, 46.889034, 34.59543, 46.521393, 1.5920715, 3.5959618, 4.6297913, 31.556698, 13.237869, 2.4564686, 37.76912, 11.393723, 0.0, 0.0, 0.0, 0.0, 0.0, 0.0, 0.0, 0.0, 0.0, 0.0, 0.0, 0.0, 0.0, 0.0, 0.0, 0.0], "parents": [2147483647, 0, 0, 1, 1, 2, 2, 3, 3, 4, 4, 5, 5, 6, 6, 7, 7, 8, 8, 9, 9, 10, 10, 11, 11, 12, 12, 13, 13, 14, 14], "right_children": [2, 4, 6, 8, 10, 12, 14, 16, 18, 20, 22, 24, 26, 28, 30, -1, -1, -1, -1, -1, -1, -1, -1, -1, -1, -1, -1, -1, -1, -1, -1], "split_conditions": [0.41827637, 0.75834435, -0.81109434, 1.230428, -0.5354663, 2.2809598, 0.2752562, 0.39124358, -0.46939972, 0.77191055, 0.01925689, 1.1135442, -1.5204052, 1.238637, -0.7662106, -0.08116778, -0.022064276, -0.056861065, 0.06964418, -0.08447267, -0.030868819, -0.021333449, 0.06213023, -0.079046234, -0.01666593, 0.0064109988, 0.103397235, 0.0014569658, 0.06999746, 0.049708467, 0.09882835], "split_indices": [0, 8, 8, 2, 0, 2, 9, 0, 8, 5, 9, 2, 8, 0, 5, 0, 0, 0, 0, 0, 0, 0, 0, 0, 0, 0, 0, 0, 0, 0, 0], "split_type": [0, 0, 0, 0, 0, 0, 0, 0, 0, 0, 0, 0, 0, 0, 0, 0, 0, 0, 0, 0, 0, 0, 0, 0, 0, 0, 0, 0, 0, 0, 0], "sum_hessian": [841.2285, 367.14203, 474.08652, 199.77242, 167.3696, 100.20989, 373.87662, 195.9527, 3.819717, 53.070965, 114.29864, 87.856186, 12.353705, 218.6132, 155.26341, 192.08797, 3.8647249, 1.6977286, 2.1219883, 36.606804, 16.46416, 55.76377, 58.53487, 46.190147, 41.666042, 2.125551, 10.228154, 137.26251, 81.350685, 46.52902, 108.7344], "tree_param": {"num_deleted": "0", "num_feature": "10", "num_nodes": "31", "size_leaf_vector": "1"}}, {"base_weights": [-0.0150381345, -0.6475591, 0.34666294, -0.95920116, -0.23348989, -0.04414605, 0.78021556, -1.0054835, -0.19970517, -0.76184684, 0.2200894, -0.7020806, 0.32744437, 0.45249045, 1.0973212, -0.08159532, 0.0039255153, -0.056640778, 0.062031727, -0.076235875, -0.0015332246, 0.045717433, -0.060020227, -0.07291494, -0.016713094, -0.015007344, 0.06095328, -0.011379435, 0.0659209, 0.058157824, 0.092777915], "categories": [], "categories_nodes": [], "categories_segments": [], "categories_sizes": [], "default_left": [0, 0, 0, 0, 0, 0, 0, 0, 0, 0, 0, 0, 0, 0, 0, 0, 0, 0, 0, 0, 0, 0, 0, 0, 0, 0, 0, 0, 0, 0, 0], "id": 21, "left_children": [1, 3, 5, 7, 9, 11, 13, 15, 17, 19, 21, 23, 25, 27, 29, -1, -1, -1, -1, -1, -1, -1, -1, -1, -1, -1, -1, -1, -1, -1, -1], "loss_changes": [187.51201, 38.251846, 88.38815, 5.767975, 31.169815, 67.50988, 25.199905, 2.4865112, 6.001617, 8.494568, 24.426432, 10.0976715, 39.649055, 27.360443, 2.044983, 0.0, 0.0, 0.0, 0.0, 0.0, 0.0, 0.0, 0.0, 0.0, 0.0, 0.0, 0.0, 0.0, 0.0, 0.0, 0.0], "parents": [2147483647, 0, 0, 1, 1, 2, 2, 3, 3, 4, 4, 5, 5, 6, 6, 7, 7, 8, 8, 9, 9, 10, 10, 11, 11, 12, 12, 13, 13, 14, 14], "right_children": [2, 4, 6, 8, 10, 12, 14, 16, 18, 20, 22, 24, 26, 28, 30, -1, -1, -1, -1, -1, -1, -1, -1, -1, -1, -1, -1, -1, -1, -1, -1], "split_conditions": [-0.02379289, 0.79840505, 0.3153196, 1.0983664, -0.53872585, 0.9258149, 0.679172, 1.6727524, 0.18099828, 1.1909757, 0.6716462, 0.73211664, -0.17679937, -0.47957915, -1.2702669, -0.08159532, 0.0039255153, -0.056640778, 0.062031727, -0.076235875, -0.0015332246, 0.045717433, -0.060020227, -0.07291494, -0.016713094, -0.015007344, 0.06095328, -0.011379435, 0.0659209, 0.058157824, 0.092777915], "split_indices": [2, 8, 8, 0, 2, 0, 1, 5, 8, 9, 3, 5, 5, 5, 5, 0, 0, 0, 0, 0, 0, 0, 0, 0, 0, 0, 0, 0, 0, 0, 0], "split_type": [0, 0, 0, 0, 0, 0, 0, 0, 0, 0, 0, 0, 0, 0, 0, 0, 0, 0, 0, 0, 0, 0, 0, 0, 0, 0, 0, 0, 0, 0, 0], "sum_hessian": [817.62335, 297.1664, 520.4569, 168.80312, 128.3633, 274.19382, 246.26309, 158.80212, 10.000995, 58.980064, 69.383224, 98.64483, 175.54901, 122.29721, 123.96589, 156.68675, 2.115368, 6.7541027, 3.2468913, 46.68443, 12.295632, 51.23953, 18.143698, 68.65268, 29.992146, 80.58695, 94.96205, 47.260067, 75.03715, 19.70001, 104.26588], "tree_param": {"num_deleted": "0", "num_feature": "10", "num_nodes": "31", "size_leaf_vector": "1"}}, {"base_weights": [-0.014676676, -0.7983543, 0.2572479, -1.0131474, -0.36744177, -0.09156148, 0.6752938, -1.0261621, -0.40645617, -0.671673, 0.31072465, -0.48422045, 0.5048512, 0.36233807, 1.0823935, -0.082493335, -0.026292397, 0.031213734, -0.060316555, -0.07832085, -0.010651849, 0.08906914, -0.04871518, -0.06019909, 0.006250821, -0.0005232003, 0.075338826, 0.07261176, -0.0066932766, 0.024531398, 0.088877715], "categories": [], "categories_nodes": [], "categories_segments": [], "categories_sizes": [], "default_left": [0, 0, 0, 0, 0, 0, 0, 0, 0, 0, 0, 0, 0, 0, 0, 0, 0, 0, 0, 0, 0, 0, 0, 0, 0, 0, 0, 0, 0, 0, 0], "id": 22, "left_children": [1, 3, 5, 7, 9, 11, 13, 15, 17, 19, 21, 23, 25, 27, 29, -1, -1, -1, -1, -1, -1, -1, -1, -1, -1, -1, -1, -1, -1, -1, -1], "loss_changes": [169.6217, 18.605408, 86.235535, 0.658844, 14.604555, 75.89659, 33.86991, 0.1244812, 1.5447793, 7.894003, 17.132767, 29.522991, 28.768272, 37.419792, 2.23938, 0.0, 0.0, 0.0, 0.0, 0.0, 0.0, 0.0, 0.0, 0.0, 0.0, 0.0, 0.0, 0.0, 0.0, 0.0, 0.0], "parents": [2147483647, 0, 0, 1, 1, 2, 2, 3, 3, 4, 4, 5, 5, 6, 6, 7, 7, 8, 8, 9, 9, 10, 10, 11, 11, 12, 12, 13, 13, 14, 14], "right_children": [2, 4, 6, 8, 10, 12, 14, 16, 18, 20, 22, 24, 26, 28, 30, -1, -1, -1, -1, -1, -1, -1, -1, -1, -1, -1, -1, -1, -1, -1, -1], "split_conditions": [-0.15105365, 1.0788304, 0.41900626, 1.6956269, 0.77191055, 1.1373059, 0.679172, 1.7215215, -0.93665797, -0.333068, -0.33991164, 1.16396, -0.22166087, -0.20891853, -1.5774517, -0.082493335, -0.026292397, 0.031213734, -0.060316555, -0.07832085, -0.010651849, 0.08906914, -0.04871518, -0.06019909, 0.006250821, -0.0005232003, 0.075338826, 0.07261176, -0.0066932766, 0.024531398, 0.088877715], "split_indices": [1, 8, 8, 9, 5, 2, 1, 4, 3, 0, 3, 0, 9, 3, 9, 0, 0, 0, 0, 0, 0, 0, 0, 0, 0, 0, 0, 0, 0, 0, 0], "split_type": [0, 0, 0, 0, 0, 0, 0, 0, 0, 0, 0, 0, 0, 0, 0, 0, 0, 0, 0, 0, 0, 0, 0, 0, 0, 0, 0, 0, 0, 0, 0], "sum_hessian": [794.0041, 204.03783, 589.96625, 135.26324, 68.77458, 322.0418, 267.92444, 131.74562, 3.5176163, 47.482914, 21.291662, 194.30545, 127.73637, 152.54575, 115.37869, 130.33214, 1.4134837, 1.0310936, 2.4865227, 29.709608, 17.773308, 11.256715, 10.034948, 131.32135, 62.9841, 59.30381, 68.432556, 68.16654, 84.3792, 4.5161886, 110.8625], "tree_param": {"num_deleted": "0", "num_feature": "10", "num_nodes": "31", "size_leaf_vector": "1"}}, {"base_weights": [-0.014288623, -0.72140676, 0.26493397, -0.91650945, -0.08133408, -0.34080037, 0.5104189, -0.96505517, 0.009114512, -0.8647244, 0.342337, -0.7605208, 0.34477958, 0.15842259, 0.8783137, -0.04044147, -0.08278087, -0.08593863, 0.050379414, -0.07911048, -0.0026425458, 0.065200575, -0.057674993, -0.07633538, -0.01899003, 0.07958575, -0.00367344, -0.029745623, 0.0474685, 0.043282036, 0.09408767], "categories": [], "categories_nodes": [], "categories_segments": [], "categories_sizes": [], "default_left": [0, 0, 0, 0, 0, 0, 0, 0, 0, 0, 0, 0, 0, 0, 0, 0, 0, 0, 0, 0, 0, 0, 0, 0, 0, 0, 0, 0, 0, 0, 0], "id": 23, "left_children": [1, 3, 5, 7, 9, 11, 13, 15, 17, 19, 21, 23, 25, 27, 29, -1, -1, -1, -1, -1, -1, -1, -1, -1, -1, -1, -1, -1, -1, -1, -1], "loss_changes": [152.74701, 27.274086, 82.6507, 7.5463104, 17.640165, 46.46318, 51.025192, 4.5826263, 6.962837, 1.8906126, 17.992657, 9.895271, 15.704851, 47.067066, 18.744934, 0.0, 0.0, 0.0, 0.0, 0.0, 0.0, 0.0, 0.0, 0.0, 0.0, 0.0, 0.0, 0.0, 0.0, 0.0, 0.0], "parents": [2147483647, 0, 0, 1, 1, 2, 2, 3, 3, 4, 4, 5, 5, 6, 6, 7, 7, 8, 8, 9, 9, 10, 10, 11, 11, 12, 12, 13, 13, 14, 14], "right_children": [2, 4, 6, 8, 10, 12, 14, 16, 18, 20, 22, 24, 26, 28, 30, -1, -1, -1, -1, -1, -1, -1, -1, -1, -1, -1, -1, -1, -1, -1, -1], "split_conditions": [-0.20844753, 1.2720644, -0.4175564, 1.0241674, -0.75877196, 1.4874561, 0.8313849, -1.2896116, -0.7823844, 1.4887776, 0.56612396, 0.85668886, -0.6382848, 0.75834435, -0.2021752, -0.04044147, -0.08278087, -0.08593863, 0.050379414, -0.07911048, -0.0026425458, 0.065200575, -0.057674993, -0.07633538, -0.01899003, 0.07958575, -0.00367344, -0.029745623, 0.0474685, 0.043282036, 0.09408767], "split_indices": [2, 8, 8, 0, 2, 1, 0, 3, 9, 5, 3, 5, 3, 8, 5, 0, 0, 0, 0, 0, 0, 0, 0, 0, 0, 0, 0, 0, 0, 0, 0], "split_type": [0, 0, 0, 0, 0, 0, 0, 0, 0, 0, 0, 0, 0, 0, 0, 0, 0, 0, 0, 0, 0, 0, 0, 0, 0, 0, 0, 0, 0, 0, 0], "sum_hessian": [771.6565, 217.99945, 553.65704, 166.7423, 51.257153, 159.55835, 394.0987, 158.39256, 8.349731, 17.62555, 33.631603, 98.90077, 60.657574, 202.13222, 191.96648, 21.948511, 136.44405, 2.7749655, 5.5747657, 15.171691, 2.4538572, 23.443481, 10.188122, 71.57818, 27.322598, 22.1906, 38.466972, 91.15143, 110.9808, 91.333176, 100.6333], "tree_param": {"num_deleted": "0", "num_feature": "10", "num_nodes": "31", "size_leaf_vector": "1"}}, {"base_weights": [-0.014135257, -0.414233, 0.4553349, -0.8136221, -0.044823494, -0.3811953, 0.65256506, -1.0233195, -0.3347671, -0.690892, 0.2943593, -0.93309724, 0.2784718, 0.23356164, 0.9325392, -0.08365577, -0.04944597, -0.065242454, 0.019025303, -0.07520681, -0.008542735, 0.056451004, -0.018184347, -0.08606568, -0.020468501, -0.023583481, 0.076344736, -0.010752423, 0.06875587, 0.0275167, 0.08870959], "categories": [], "categories_nodes": [], "categories_segments": [], "categories_sizes": [], "default_left": [0, 0, 0, 0, 0, 0, 0, 0, 0, 0, 0, 0, 0, 0, 0, 0, 0, 0, 0, 0, 0, 0, 0, 0, 0, 0, 0, 0, 0, 0, 0], "id": 24, "left_children": [1, 3, 5, 7, 9, 11, 13, 15, 17, 19, 21, 23, 25, 27, 29, -1, -1, -1, -1, -1, -1, -1, -1, -1, -1, -1, -1, -1, -1, -1, -1], "loss_changes": [141.12144, 59.805786, 57.285484, 19.221817, 46.609512, 24.502296, 32.64228, 0.5780182, 16.937172, 10.554657, 30.10431, 3.251299, 12.331431, 26.262785, 17.010864, 0.0, 0.0, 0.0, 0.0, 0.0, 0.0, 0.0, 0.0, 0.0, 0.0, 0.0, 0.0, 0.0, 0.0, 0.0, 0.0], "parents": [2147483647, 0, 0, 1, 1, 2, 2, 3, 3, 4, 4, 5, 5, 6, 6, 7, 7, 8, 8, 9, 9, 10, 10, 11, 11, 12, 12, 13, 13, 14, 14], "right_children": [2, 4, 6, 8, 10, 12, 14, 16, 18, 20, 22, 24, 26, 28, 30, -1, -1, -1, -1, -1, -1, -1, -1, -1, -1, -1, -1, -1, -1, -1, -1], "split_conditions": [0.4705578, 0.5203364, -0.9807634, 0.6920269, -0.29528946, 1.5756291, -0.47957915, 0.70051885, 0.3878128, 0.8820647, 0.17678338, 1.0107708, 0.11732954, 0.7041445, -0.96490955, -0.08365577, -0.04944597, -0.065242454, 0.019025303, -0.07520681, -0.008542735, 0.056451004, -0.018184347, -0.08606568, -0.020468501, -0.023583481, 0.076344736, -0.010752423, 0.06875587, 0.0275167, 0.08870959], "split_indices": [2, 8, 8, 0, 0, 1, 5, 1, 5, 5, 3, 9, 5, 8, 9, 0, 0, 0, 0, 0, 0, 0, 0, 0, 0, 0, 0, 0, 0, 0, 0], "split_type": [0, 0, 0, 0, 0, 0, 0, 0, 0, 0, 0, 0, 0, 0, 0, 0, 0, 0, 0, 0, 0, 0, 0, 0, 0, 0, 0, 0, 0, 0, 0], "sum_hessian": [749.3055, 404.60532, 344.70013, 193.83597, 210.76933, 65.58707, 279.11307, 134.01285, 59.82313, 72.202515, 138.56682, 35.48473, 30.102335, 112.53292, 166.58017, 125.50221, 8.51063, 32.2883, 27.534828, 50.18364, 22.018879, 77.2838, 61.283016, 28.82213, 6.662597, 16.592173, 13.510162, 71.36297, 41.169952, 39.08099, 127.499176], "tree_param": {"num_deleted": "0", "num_feature": "10", "num_nodes": "31", "size_leaf_vector": "1"}}, {"base_weights": [-0.014039037, -0.45431268, 0.38275445, -0.85448444, 6.1012805e-05, -0.2586703, 0.64885885, -0.48619983, -0.98352426, -0.6977309, 0.3058894, -0.45168364, 0.9267641, 0.29526857, 0.98067015, -0.07444927, 0.017275807, -0.08214996, -0.038894847, -0.07188375, 0.0022045868, -0.018164052, 0.06247253, -0.05898648, 0.009961072, -0.02365894, 0.09040614, -0.009041458, 0.078468695, 0.06210278, 0.10190705], "categories": [], "categories_nodes": [], "categories_segments": [], "categories_sizes": [], "default_left": [0, 0, 0, 0, 0, 0, 0, 0, 0, 0, 0, 0, 0, 0, 0, 0, 0, 0, 0, 0, 0, 0, 0, 0, 0, 0, 0, 0, 0, 0, 0], "id": 25, "left_children": [1, 3, 5, 7, 9, 11, 13, 15, 17, 19, 21, 23, 25, 27, 29, -1, -1, -1, -1, -1, -1, -1, -1, -1, -1, -1, -1, -1, -1, -1, -1], "loss_changes": [127.8054, 63.05332, 65.84946, 8.284424, 35.08158, 26.398989, 31.653557, 15.746983, 2.4235077, 7.320902, 29.112011, 16.27444, 4.3674154, 37.405895, 7.401367, 0.0, 0.0, 0.0, 0.0, 0.0, 0.0, 0.0, 0.0, 0.0, 0.0, 0.0, 0.0, 0.0, 0.0, 0.0, 0.0], "parents": [2147483647, 0, 0, 1, 1, 2, 2, 3, 3, 4, 4, 5, 5, 6, 6, 7, 7, 8, 8, 9, 9, 10, 10, 11, 11, 12, 12, 13, 13, 14, 14], "right_children": [2, 4, 6, 8, 10, 12, 14, 16, 18, 20, 22, 24, 26, 28, 30, -1, -1, -1, -1, -1, -1, -1, -1, -1, -1, -1, -1, -1, -1, -1, -1], "split_conditions": [0.4659072, 0.866744, -0.5636603, -0.81658095, -0.53872585, 2.2809598, -0.1894873, 0.08412582, 0.8195852, 1.1909757, -0.107592575, 0.75230193, -1.4981769, 0.67350984, 0.34679675, -0.07444927, 0.017275807, -0.08214996, -0.038894847, -0.07188375, 0.0022045868, -0.018164052, 0.06247253, -0.05898648, 0.009961072, -0.02365894, 0.09040614, -0.009041458, 0.078468695, 0.06210278, 0.10190705], "split_indices": [1, 8, 8, 3, 2, 2, 5, 0, 0, 9, 5, 5, 9, 8, 9, 0, 0, 0, 0, 0, 0, 0, 0, 0, 0, 0, 0, 0, 0, 0, 0], "split_type": [0, 0, 0, 0, 0, 0, 0, 0, 0, 0, 0, 0, 0, 0, 0, 0, 0, 0, 0, 0, 0, 0, 0, 0, 0, 0, 0, 0, 0, 0, 0], "sum_hessian": [729.58484, 345.77515, 383.80972, 183.38522, 162.38991, 112.54833, 271.26138, 48.819702, 134.56552, 49.09381, 113.2961, 97.32136, 15.226968, 132.23589, 139.02551, 29.697578, 19.122126, 122.797226, 11.768297, 38.261246, 10.832563, 53.638744, 59.657356, 64.87846, 32.442894, 2.1064544, 13.120513, 83.4026, 48.83328, 84.06592, 54.959602], "tree_param": {"num_deleted": "0", "num_feature": "10", "num_nodes": "31", "size_leaf_vector": "1"}}, {"base_weights": [-0.013586207, -0.6925476, 0.22917986, -0.9051443, -0.09068553, -0.011894027, 0.7354978, -0.9877309, -0.49425125, -0.6838609, 0.41635495, -0.29135033, 0.579985, 0.19843578, 0.9731751, -0.08001648, 0.008668056, -0.079696774, -0.00834147, -0.06563981, 0.0790825, 0.079951964, -0.04953424, -0.05070987, 0.016008278, -0.051495392, 0.059155796, -0.028571738, 0.06956151, 0.042756677, 0.08476302], "categories": [], "categories_nodes": [], "categories_segments": [], "categories_sizes": [], "default_left": [0, 0, 0, 0, 0, 0, 0, 0, 0, 0, 0, 0, 0, 0, 0, 0, 0, 0, 0, 0, 0, 0, 0, 0, 0, 0, 0, 0, 0, 0, 0], "id": 26, "left_children": [1, 3, 5, 7, 9, 11, 13, 15, 17, 19, 21, 23, 25, 27, 29, -1, -1, -1, -1, -1, -1, -1, -1, -1, -1, -1, -1, -1, -1, -1, -1], "loss_changes": [117.14016, 23.867607, 63.9121, 4.2017136, 15.313643, 58.995792, 21.364716, 1.66819, 4.8156557, 6.1598215, 17.259789, 40.906494, 22.799034, 20.096342, 3.8598099, 0.0, 0.0, 0.0, 0.0, 0.0, 0.0, 0.0, 0.0, 0.0, 0.0, 0.0, 0.0, 0.0, 0.0, 0.0, 0.0], "parents": [2147483647, 0, 0, 1, 1, 2, 2, 3, 3, 4, 4, 5, 5, 6, 6, 7, 7, 8, 8, 9, 9, 10, 10, 11, 11, 12, 12, 13, 13, 14, 14], "right_children": [2, 4, 6, 8, 10, 12, 14, 16, 18, 20, 22, 24, 26, 28, 30, -1, -1, -1, -1, -1, -1, -1, -1, -1, -1, -1, -1, -1, -1, -1, -1], "split_conditions": [-0.029959535, 1.2838471, 0.74420524, -0.08920419, 0.2026846, 1.3073604, -0.0012444422, 1.6992817, -0.09144432, 0.43265632, 0.2786669, 0.3607068, -1.4214315, 0.2172503, 0.19024517, -0.08001648, 0.008668056, -0.079696774, -0.00834147, -0.06563981, 0.0790825, 0.079951964, -0.04953424, -0.05070987, 0.016008278, -0.051495392, 0.059155796, -0.028571738, 0.06956151, 0.042756677, 0.08476302], "split_indices": [0, 8, 8, 1, 5, 2, 2, 5, 5, 2, 3, 5, 8, 9, 1, 0, 0, 0, 0, 0, 0, 0, 0, 0, 0, 0, 0, 0, 0, 0, 0], "split_type": [0, 0, 0, 0, 0, 0, 0, 0, 0, 0, 0, 0, 0, 0, 0, 0, 0, 0, 0, 0, 0, 0, 0, 0, 0, 0, 0, 0, 0, 0, 0], "sum_hessian": [708.7148, 186.17447, 522.54034, 137.20532, 48.96914, 354.65463, 167.88571, 113.0743, 24.131025, 22.406982, 26.562159, 241.25403, 113.40059, 52.0675, 115.818214, 111.88831, 1.1859848, 9.8711195, 14.259906, 21.185486, 1.2214968, 17.016253, 9.545907, 141.9977, 99.25634, 12.723882, 100.676704, 28.740969, 23.326534, 20.231585, 95.58663], "tree_param": {"num_deleted": "0", "num_feature": "10", "num_nodes": "31", "size_leaf_vector": "1"}}, {"base_weights": [-0.013038028, -0.43304843, 0.3545354, -0.8496645, -0.02962493, -0.054903567, 0.72670305, -0.90058106, 0.2750612, -0.97190183, 0.17244284, -0.52891356, 0.353964, 0.89910275, 0.11357196, -0.08139509, -0.04462074, -0.064044625, 0.07261222, -0.084192716, -0.028787008, -0.019699471, 0.054439645, -0.074256465, -0.017743329, 0.002891944, 0.094724126, 0.025940994, 0.08482599, -0.025023352, 0.06477666], "categories": [], "categories_nodes": [], "categories_segments": [], "categories_sizes": [], "default_left": [0, 0, 0, 0, 0, 0, 0, 0, 0, 0, 0, 0, 0, 0, 0, 0, 0, 0, 0, 0, 0, 0, 0, 0, 0, 0, 0, 0, 0, 0, 0], "id": 27, "left_children": [1, 3, 5, 7, 9, 11, 13, 15, 17, 19, 21, 23, 25, 27, 29, -1, -1, -1, -1, -1, -1, -1, -1, -1, -1, -1, -1, -1, -1, -1, -1], "loss_changes": [107.00521, 54.34072, 56.36666, 9.358658, 31.65492, 34.479435, 20.37342, 5.539406, 5.93624, 1.0676365, 29.313614, 9.891985, 25.176933, 13.655014, 13.211074, 0.0, 0.0, 0.0, 0.0, 0.0, 0.0, 0.0, 0.0, 0.0, 0.0, 0.0, 0.0, 0.0, 0.0, 0.0, 0.0], "parents": [2147483647, 0, 0, 1, 1, 2, 2, 3, 3, 4, 4, 5, 5, 6, 6, 7, 7, 8, 8, 9, 9, 10, 10, 11, 11, 12, 12, 13, 13, 14, 14], "right_children": [2, 4, 6, 8, 10, 12, 14, 16, 18, 20, 22, 24, 26, 28, 30, -1, -1, -1, -1, -1, -1, -1, -1, -1, -1, -1, -1, -1, -1, -1, -1], "split_conditions": [0.57920194, 0.74420524, -0.0028098489, 1.3995204, -0.75877196, 1.1135442, 0.99912894, 0.9080173, -0.57072985, 1.5055027, 0.23194511, -0.81109434, 0.7915085, -0.96490955, 1.2554781, -0.08139509, -0.04462074, -0.064044625, 0.07261222, -0.084192716, -0.028787008, -0.019699471, 0.054439645, -0.074256465, -0.017743329, 0.002891944, 0.094724126, 0.025940994, 0.08482599, -0.025023352, 0.06477666], "split_indices": [0, 8, 8, 2, 2, 2, 3, 5, 8, 5, 9, 8, 9, 9, 0, 0, 0, 0, 0, 0, 0, 0, 0, 0, 0, 0, 0, 0, 0, 0, 0], "split_type": [0, 0, 0, 0, 0, 0, 0, 0, 0, 0, 0, 0, 0, 0, 0, 0, 0, 0, 0, 0, 0, 0, 0, 0, 0, 0, 0, 0, 0, 0, 0], "sum_hessian": [691.11334, 322.46652, 368.6468, 158.09521, 164.3713, 175.93977, 192.70703, 151.43883, 6.6563797, 28.351868, 136.01944, 81.343124, 94.59664, 150.04976, 42.657276, 111.473175, 39.96566, 2.3666892, 4.2896905, 24.420326, 3.93154, 74.85048, 61.168957, 34.485676, 46.85745, 69.160706, 25.435932, 33.525463, 116.5243, 26.796099, 15.861179], "tree_param": {"num_deleted": "0", "num_feature": "10", "num_nodes": "31", "size_leaf_vector": "1"}}, {"base_weights": [-0.012731652, -0.37452912, 0.39200374, -0.91939414, -0.13650633, -0.3558967, 0.571364, -1.0186734, -0.36135074, -0.85904616, 0.072666645, -0.9030531, 0.2472449, 0.8179442, 0.07636561, -0.026245488, -0.083052106, -0.08425672, 0.0154656395, -0.016183978, -0.07781518, 0.061277084, -0.017957453, -0.08371078, -0.021054763, -0.02310473, 0.0694205, 0.038079593, 0.09065878, -0.016335951, 0.071031004], "categories": [], "categories_nodes": [], "categories_segments": [], "categories_sizes": [], "default_left": [0, 0, 0, 0, 0, 0, 0, 0, 0, 0, 0, 0, 0, 0, 0, 0, 0, 0, 0, 0, 0, 0, 0, 0, 0, 0, 0, 0, 0, 0, 0], "id": 28, "left_children": [1, 3, 5, 7, 9, 11, 13, 15, 17, 19, 21, 23, 25, 27, 29, -1, -1, -1, -1, -1, -1, -1, -1, -1, -1, -1, -1, -1, -1, -1, -1], "loss_changes": [98.89414, 46.118958, 42.965496, 5.628418, 37.746628, 20.775698, 31.367317, 0.8880615, 7.071752, 3.986946, 40.19501, 2.7391624, 10.3652725, 17.980461, 19.92703, 0.0, 0.0, 0.0, 0.0, 0.0, 0.0, 0.0, 0.0, 0.0, 0.0, 0.0, 0.0, 0.0, 0.0, 0.0, 0.0], "parents": [2147483647, 0, 0, 1, 1, 2, 2, 3, 3, 4, 4, 5, 5, 6, 6, 7, 7, 8, 8, 9, 9, 10, 10, 11, 11, 12, 12, 13, 13, 14, 14], "right_children": [2, 4, 6, 8, 10, 12, 14, 16, 18, 20, 22, 24, 26, 28, 30, -1, -1, -1, -1, -1, -1, -1, -1, -1, -1, -1, -1, -1, -1, -1, -1], "split_conditions": [0.4705578, -0.0028098489, -0.9807634, 1.0322866, -0.5354663, 1.5756291, 0.60978836, -1.6333344, -0.7616075, -1.3041664, -0.7765553, 1.0107708, 0.11732954, -0.14083934, 0.92094386, -0.026245488, -0.083052106, -0.08425672, 0.0154656395, -0.016183978, -0.07781518, 0.061277084, -0.017957453, -0.08371078, -0.021054763, -0.02310473, 0.0694205, 0.038079593, 0.09065878, -0.016335951, 0.071031004], "split_indices": [2, 8, 8, 1, 0, 1, 3, 7, 8, 3, 3, 9, 5, 9, 8, 0, 0, 0, 0, 0, 0, 0, 0, 0, 0, 0, 0, 0, 0, 0, 0], "split_type": [0, 0, 0, 0, 0, 0, 0, 0, 0, 0, 0, 0, 0, 0, 0, 0, 0, 0, 0, 0, 0, 0, 0, 0, 0, 0, 0, 0, 0, 0, 0], "sum_hessian": [673.35504, 355.57617, 317.77887, 107.23614, 248.34003, 61.277645, 256.50122, 90.33887, 16.897266, 55.055748, 193.28427, 31.869295, 29.40835, 170.77722, 85.724, 2.9674873, 87.37138, 7.118876, 9.77839, 8.531624, 46.524128, 57.51296, 135.77132, 25.517923, 6.3513713, 16.064735, 13.343615, 83.12906, 87.64816, 64.256996, 21.467], "tree_param": {"num_deleted": "0", "num_feature": "10", "num_nodes": "31", "size_leaf_vector": "1"}}, {"base_weights": [-0.01262089, -0.61938524, 0.20862827, -0.8557204, -0.08758174, -0.06615474, 0.5820445, -0.9393116, -0.10034878, -0.8285317, 0.22699949, -0.39052975, 0.47583485, 0.30201915, 0.9992314, -0.0352041, -0.08169581, -0.07802046, 0.044004764, -0.0766201, -0.0066210534, 0.052539315, -0.04856541, 0.012729206, -0.054743093, -0.045443095, 0.05247914, -0.015457607, 0.061546028, 0.00016303896, 0.08305738], "categories": [], "categories_nodes": [], "categories_segments": [], "categories_sizes": [], "default_left": [0, 0, 0, 0, 0, 0, 0, 0, 0, 0, 0, 0, 0, 0, 0, 0, 0, 0, 0, 0, 0, 0, 0, 0, 0, 0, 0, 0, 0, 0, 0], "id": 29, "left_children": [1, 3, 5, 7, 9, 11, 13, 15, 17, 19, 21, 23, 25, 27, 29, -1, -1, -1, -1, -1, -1, -1, -1, -1, -1, -1, -1, -1, -1, -1, -1], "loss_changes": [88.57599, 22.082787, 49.654114, 7.6054153, 13.090912, 49.31687, 23.656776, 4.0342865, 8.087368, 1.5313139, 14.608077, 28.425625, 20.134321, 28.880123, 3.1832733, 0.0, 0.0, 0.0, 0.0, 0.0, 0.0, 0.0, 0.0, 0.0, 0.0, 0.0, 0.0, 0.0, 0.0, 0.0, 0.0], "parents": [2147483647, 0, 0, 1, 1, 2, 2, 3, 3, 4, 4, 5, 5, 6, 6, 7, 7, 8, 8, 9, 9, 10, 10, 11, 11, 12, 12, 13, 13, 14, 14], "right_children": [2, 4, 6, 8, 10, 12, 14, 16, 18, 20, 22, 24, 26, 28, 30, -1, -1, -1, -1, -1, -1, -1, -1, -1, -1, -1, -1, -1, -1, -1, -1], "split_conditions": [-0.18062802, 1.2084386, 0.41900626, 0.50709844, -0.75877196, 1.2966684, 0.679172, -1.2896116, 0.2328416, 1.5055027, 0.25683472, -0.58734304, -1.39551, -0.107592575, 0.33539608, -0.0352041, -0.08169581, -0.07802046, 0.044004764, -0.0766201, -0.0066210534, 0.052539315, -0.04856541, 0.012729206, -0.054743093, -0.045443095, 0.05247914, -0.015457607, 0.061546028, 0.00016303896, 0.08305738], "split_indices": [2, 8, 8, 1, 2, 0, 1, 3, 8, 5, 3, 3, 8, 5, 0, 0, 0, 0, 0, 0, 0, 0, 0, 0, 0, 0, 0, 0, 0, 0, 0], "split_type": [0, 0, 0, 0, 0, 0, 0, 0, 0, 0, 0, 0, 0, 0, 0, 0, 0, 0, 0, 0, 0, 0, 0, 0, 0, 0, 0, 0, 0, 0, 0], "sum_hessian": [657.84045, 175.29729, 482.54318, 120.94144, 54.355843, 278.4587, 204.08449, 108.67202, 12.269416, 15.712827, 38.643017, 174.37598, 104.082726, 123.148415, 80.93607, 16.210476, 92.46155, 5.01882, 7.2505956, 13.150061, 2.5627651, 25.643269, 12.999748, 60.895084, 113.480896, 15.002172, 89.08055, 60.07208, 63.076336, 3.0847867, 77.85129], "tree_param": {"num_deleted": "0", "num_feature": "10", "num_nodes": "31", "size_leaf_vector": "1"}}, {"base_weights": [-0.012354836, -0.7666721, 0.15676016, -0.99531436, -0.3062604, -0.10796448, 0.57336, -0.020944059, -0.08060398, -0.7000865, 0.26716253, -0.334294, 0.41399005, 0.79058903, -0.044014864, -0.06528112, 0.04835877, 0.06784144, -0.049724646, -0.041334372, 0.033473425, -0.02022099, 0.062227167, -0.06940339, 0.068730146, -0.0737585, 0.012392857], "categories": [], "categories_nodes": [], "categories_segments": [], "categories_sizes": [], "default_left": [0, 0, 0, 0, 0, 0, 0, 0, 0, 0, 0, 0, 0, 0, 0, 0, 0, 0, 0, 0, 0, 0, 0, 0, 0, 0, 0], "id": 30, "left_children": [1, 3, 5, 7, 9, 11, 13, -1, -1, 15, 17, 19, 21, 23, 25, -1, -1, -1, -1, -1, -1, -1, -1, -1, -1, -1, -1], "loss_changes": [82.11102, 12.104134, 58.055214, 0.43911743, 9.346375, 38.222046, 27.457375, 0.0, 0.0, 4.1714745, 9.425525, 31.163116, 23.960148, 17.940681, 9.603219, 0.0, 0.0, 0.0, 0.0, 0.0, 0.0, 0.0, 0.0, 0.0, 0.0, 0.0, 0.0], "parents": [2147483647, 0, 0, 1, 1, 2, 2, 3, 3, 4, 4, 5, 5, 6, 6, 9, 9, 10, 10, 11, 11, 12, 12, 13, 13, 14, 14], "right_children": [2, 4, 6, 8, 10, 12, 14, -1, -1, 16, 18, 20, 22, 24, 26, -1, -1, -1, -1, -1, -1, -1, -1, -1, -1, -1, -1], "split_conditions": [-0.2710925, 1.1942995, 0.35955805, -1.6379488, 0.7205822, 0.70616406, 0.8499424, -0.020944059, -0.08060398, -0.29528946, -0.063370645, 1.2084386, -0.25024387, -1.5204052, -0.91242445, -0.06528112, 0.04835877, 0.06784144, -0.049724646, -0.041334372, 0.033473425, -0.02022099, 0.062227167, -0.06940339, 0.068730146, -0.0737585, 0.012392857], "split_indices": [0, 8, 9, 4, 5, 5, 3, 0, 0, 0, 3, 8, 8, 8, 8, 0, 0, 0, 0, 0, 0, 0, 0, 0, 0, 0, 0], "split_type": [0, 0, 0, 0, 0, 0, 0, 0, 0, 0, 0, 0, 0, 0, 0, 0, 0, 0, 0, 0, 0, 0, 0, 0, 0, 0, 0], "sum_hessian": [641.7309, 116.87784, 524.8531, 77.319084, 39.55875, 321.3775, 203.47559, 1.6360272, 75.68306, 23.321018, 16.237732, 224.42293, 96.95455, 150.30785, 53.167744, 21.761713, 1.5593057, 9.8474045, 6.3903275, 180.90288, 43.520058, 34.33717, 62.617382, 5.5035305, 144.8043, 9.149821, 44.01792], "tree_param": {"num_deleted": "0", "num_feature": "10", "num_nodes": "27", "size_leaf_vector": "1"}}, {"base_weights": [-0.012137906, -0.35032538, 0.35367823, -0.8958952, -0.1313605, -0.043781623, 0.6403108, -1.0072843, -0.3421767, -0.5358326, 0.2052091, -0.37783676, 0.4893733, 0.11067843, 0.82620484, -0.021493085, -0.0824007, -0.08199744, 0.013452041, 0.005798123, -0.0636246, -0.07246024, 0.033329662, 0.030875804, -0.057440706, -0.053824533, 0.053377304, -0.02795436, 0.06850823, 0.031269148, 0.08015824], "categories": [], "categories_nodes": [], "categories_segments": [], "categories_sizes": [], "default_left": [0, 0, 0, 0, 0, 0, 0, 0, 0, 0, 0, 0, 0, 0, 0, 0, 0, 0, 0, 0, 0, 0, 0, 0, 0, 0, 0, 0, 0, 0, 0], "id": 31, "left_children": [1, 3, 5, 7, 9, 11, 13, 15, 17, 19, 21, 23, 25, 27, 29, -1, -1, -1, -1, -1, -1, -1, -1, -1, -1, -1, -1, -1, -1, -1, -1], "loss_changes": [78.33051, 39.182945, 34.68062, 5.456169, 32.22834, 23.050213, 17.314293, 1.0288696, 6.188473, 17.015194, 30.79294, 20.930819, 10.76034, 16.453403, 9.609962, 0.0, 0.0, 0.0, 0.0, 0.0, 0.0, 0.0, 0.0, 0.0, 0.0, 0.0, 0.0, 0.0, 0.0, 0.0, 0.0], "parents": [2147483647, 0, 0, 1, 1, 2, 2, 3, 3, 4, 4, 5, 5, 6, 6, 7, 7, 8, 8, 9, 9, 10, 10, 11, 11, 12, 12, 13, 13, 14, 14], "right_children": [2, 4, 6, 8, 10, 12, 14, 16, 18, 20, 22, 24, 26, 28, 30, -1, -1, -1, -1, -1, -1, -1, -1, -1, -1, -1, -1, -1, -1, -1, -1], "split_conditions": [0.4705578, -0.0028098489, -0.22432221, 1.0322866, -0.09144432, 1.622202, -0.986519, -1.6333344, -0.7616075, -0.81658095, -0.75877196, -0.84205186, -1.2510719, 1.1050912, 0.47468692, -0.021493085, -0.0824007, -0.08199744, 0.013452041, 0.005798123, -0.0636246, -0.07246024, 0.033329662, 0.030875804, -0.057440706, -0.053824533, 0.053377304, -0.02795436, 0.06850823, 0.031269148, 0.08015824], "split_indices": [2, 8, 8, 1, 5, 2, 5, 7, 8, 3, 2, 3, 9, 1, 1, 0, 0, 0, 0, 0, 0, 0, 0, 0, 0, 0, 0, 0, 0, 0, 0], "split_type": [0, 0, 0, 0, 0, 0, 0, 0, 0, 0, 0, 0, 0, 0, 0, 0, 0, 0, 0, 0, 0, 0, 0, 0, 0, 0, 0, 0, 0, 0, 0], "sum_hessian": [631.1543, 327.98398, 303.1703, 93.05012, 234.93385, 127.38241, 175.78789, 76.78458, 16.265535, 106.43441, 128.49945, 78.49295, 48.889458, 46.084244, 129.70364, 2.6745906, 74.10999, 6.525843, 9.739693, 32.0403, 74.39411, 20.0185, 108.48094, 24.145275, 54.347675, 6.119063, 42.770393, 28.827831, 17.256414, 38.233578, 91.47007], "tree_param": {"num_deleted": "0", "num_feature": "10", "num_nodes": "31", "size_leaf_vector": "1"}}, {"base_weights": [-0.011959247, -0.3879611, 0.30184543, -0.8509727, -0.06135145, -0.04060151, 0.6295908, -0.9552159, -0.21090253, -0.7554396, 0.13427506, -0.4672245, 0.30325654, 0.9199255, 0.28212276, -0.07883725, -0.027765937, -0.071588956, 0.03883422, -0.002227274, -0.0733709, -0.016533082, 0.056499675, -0.060921192, -0.0057632867, -0.017753614, 0.056236394, 0.03360506, 0.08474977, 0.0016870217, 0.084974185], "categories": [], "categories_nodes": [], "categories_segments": [], "categories_sizes": [], "default_left": [0, 0, 0, 0, 0, 0, 0, 0, 0, 0, 0, 0, 0, 0, 0, 0, 0, 0, 0, 0, 0, 0, 0, 0, 0, 0, 0, 0, 0, 0, 0], "id": 32, "left_children": [1, 3, 5, 7, 9, 11, 13, 15, 17, 19, 21, 23, 25, 27, 29, -1, -1, -1, -1, -1, -1, -1, -1, -1, -1, -1, -1, -1, -1, -1, -1], "loss_changes": [73.01063, 42.514324, 37.8835, 7.561775, 22.658846, 24.477945, 17.133965, 1.4933853, 8.806375, 4.289728, 25.584768, 8.601295, 19.565224, 6.0714417, 16.2525, 0.0, 0.0, 0.0, 0.0, 0.0, 0.0, 0.0, 0.0, 0.0, 0.0, 0.0, 0.0, 0.0, 0.0, 0.0, 0.0], "parents": [2147483647, 0, 0, 1, 1, 2, 2, 3, 3, 4, 4, 5, 5, 6, 6, 7, 7, 8, 8, 9, 9, 10, 10, 11, 11, 12, 12, 13, 13, 14, 14], "right_children": [2, 4, 6, 8, 10, 12, 14, 16, 18, 20, 22, 24, 26, 28, 30, -1, -1, -1, -1, -1, -1, -1, -1, -1, -1, -1, -1, -1, -1, -1, -1], "split_conditions": [0.57920194, 0.6028144, -0.0028098489, 0.70051885, -0.5354663, 1.1135442, 0.19133817, 0.5203364, 0.13693812, -1.3041664, 0.43148535, 0.3878128, -0.33264545, -0.96490955, 1.2590005, -0.07883725, -0.027765937, -0.071588956, 0.03883422, -0.002227274, -0.0733709, -0.016533082, 0.056499675, -0.060921192, -0.0057632867, -0.017753614, 0.056236394, 0.03360506, 0.08474977, 0.0016870217, 0.084974185], "split_indices": [0, 8, 8, 1, 0, 2, 3, 8, 5, 3, 9, 5, 9, 9, 2, 0, 0, 0, 0, 0, 0, 0, 0, 0, 0, 0, 0, 0, 0, 0, 0], "split_type": [0, 0, 0, 0, 0, 0, 0, 0, 0, 0, 0, 0, 0, 0, 0, 0, 0, 0, 0, 0, 0, 0, 0, 0, 0, 0, 0, 0, 0, 0, 0], "sum_hessian": [616.7881, 280.47986, 336.30823, 115.35031, 165.12953, 164.89388, 171.41435, 98.771774, 16.578537, 35.678745, 129.45079, 73.43039, 91.463486, 92.487144, 78.92721, 93.50048, 5.2712936, 8.219728, 8.3588085, 6.7004395, 28.978306, 81.505775, 47.94502, 41.55653, 31.873856, 39.719513, 51.743973, 21.048565, 71.43858, 59.907116, 19.020096], "tree_param": {"num_deleted": "0", "num_feature": "10", "num_nodes": "31", "size_leaf_vector": "1"}}, {"base_weights": [-0.011558373, -0.3713267, 0.28706458, -0.62842613, 0.24477309, 0.09646033, 0.9835295, -0.17194787, -0.8324385, -0.7173347, 0.4369798, -0.21117128, 0.57979685, 0.21070679, 1.0268261, -0.0736677, 0.016599981, -0.078382544, -0.038525082, -0.06689712, 0.03226951, 0.060394634, -0.020641908, -0.035783157, 0.044546727, -0.015304497, 0.0674284, 0.06729532, -0.082115315, 0.059024017, 0.087201424], "categories": [], "categories_nodes": [], "categories_segments": [], "categories_sizes": [], "default_left": [0, 0, 0, 0, 0, 0, 0, 0, 0, 0, 0, 0, 0, 0, 0, 0, 0, 0, 0, 0, 0, 0, 0, 0, 0, 0, 0, 0, 0, 0, 0], "id": 33, "left_children": [1, 3, 5, 7, 9, 11, 13, 15, 17, 19, 21, 23, 25, 27, 29, -1, -1, -1, -1, -1, -1, -1, -1, -1, -1, -1, -1, -1, -1, -1, -1], "loss_changes": [64.93099, 43.572334, 43.748634, 17.893951, 15.371155, 38.843636, 2.154564, 17.54943, 6.4350204, 2.1941104, 15.329512, 29.239086, 20.760323, 4.7769194, 0.41654205, 0.0, 0.0, 0.0, 0.0, 0.0, 0.0, 0.0, 0.0, 0.0, 0.0, 0.0, 0.0, 0.0, 0.0, 0.0, 0.0], "parents": [2147483647, 0, 0, 1, 1, 2, 2, 3, 3, 4, 4, 5, 5, 6, 6, 7, 7, 8, 8, 9, 9, 10, 10, 11, 11, 12, 12, 13, 13, 14, 14], "right_children": [2, 4, 6, 8, 10, 12, 14, 16, 18, 20, 22, 24, 26, 28, 30, -1, -1, -1, -1, -1, -1, -1, -1, -1, -1, -1, -1, -1, -1, -1, -1], "split_conditions": [0.4659072, 1.2720644, 0.71592706, -0.743807, -0.683441, 0.35955805, -1.5217661, 0.0702421, 0.7205822, 1.5520197, 0.60978836, 1.6606565, -0.9582595, 1.3428181, -1.1866419, -0.0736677, 0.016599981, -0.078382544, -0.038525082, -0.06689712, 0.03226951, 0.060394634, -0.020641908, -0.035783157, 0.044546727, -0.015304497, 0.0674284, 0.06729532, -0.082115315, 0.059024017, 0.087201424], "split_indices": [1, 8, 8, 3, 1, 9, 9, 8, 5, 4, 3, 1, 5, 6, 5, 0, 0, 0, 0, 0, 0, 0, 0, 0, 0, 0, 0, 0, 0, 0, 0], "split_type": [0, 0, 0, 0, 0, 0, 0, 0, 0, 0, 0, 0, 0, 0, 0, 0, 0, 0, 0, 0, 0, 0, 0, 0, 0, 0, 0, 0, 0, 0, 0], "sum_hessian": [602.3821, 273.10873, 329.27335, 192.68216, 80.42657, 259.41635, 69.85698, 60.084896, 132.59726, 12.937028, 67.48954, 158.86552, 100.55084, 4.0172696, 65.83971, 19.72593, 40.358967, 92.12057, 40.47669, 11.9258375, 1.0111907, 46.246346, 21.243195, 121.82793, 37.03759, 25.646362, 74.90448, 2.8731098, 1.1441598, 14.086506, 51.7532], "tree_param": {"num_deleted": "0", "num_feature": "10", "num_nodes": "31", "size_leaf_vector": "1"}}, {"base_weights": [-0.010948142, -0.41329384, 0.24325216, -0.6436996, 0.09207126, -0.35612953, 0.4165927, -0.86084557, -0.2790449, -0.19557874, 0.7430352, -0.5463064, 0.7440771, 0.71966606, 0.045773175, -0.074886255, -0.018798403, -0.07521018, -0.0004050107, -0.056979373, 0.024335656, -0.063002326, 0.078259535, 0.0002500617, -0.063977174, 0.016617233, 0.08987492, 0.03214094, 0.0795744, -0.017495826, 0.06358652], "categories": [], "categories_nodes": [], "categories_segments": [], "categories_sizes": [], "default_left": [0, 0, 0, 0, 0, 0, 0, 0, 0, 0, 0, 0, 0, 0, 0, 0, 0, 0, 0, 0, 0, 0, 0, 0, 0, 0, 0, 0, 0, 0, 0], "id": 34, "left_children": [1, 3, 5, 7, 9, 11, 13, 15, 17, 19, 21, 23, 25, 27, 29, -1, -1, -1, -1, -1, -1, -1, -1, -1, -1, -1, -1, -1, -1, -1, -1], "loss_changes": [60.536587, 26.74216, 37.837204, 12.232925, 13.746264, 17.545504, 31.641605, 4.4062195, 10.911966, 13.428739, 8.859066, 9.8067665, 2.3092017, 13.15329, 25.495619, 0.0, 0.0, 0.0, 0.0, 0.0, 0.0, 0.0, 0.0, 0.0, 0.0, 0.0, 0.0, 0.0, 0.0, 0.0, 0.0], "parents": [2147483647, 0, 0, 1, 1, 2, 2, 3, 3, 4, 4, 5, 5, 6, 6, 7, 7, 8, 8, 9, 9, 10, 10, 11, 11, 12, 12, 13, 13, 14, 14], "right_children": [2, 4, 6, 8, 10, 12, 14, 16, 18, 20, 22, 24, 26, 28, 30, -1, -1, -1, -1, -1, -1, -1, -1, -1, -1, -1, -1, -1, -1, -1, -1], "split_conditions": [0.1574732, 1.2225777, -0.81109434, 0.43357468, 0.16864677, 2.2809598, 0.24227993, 1.4280264, -0.68027884, 0.2026846, -1.4981769, -0.8056649, 1.525252, -0.19768511, 1.3639462, -0.074886255, -0.018798403, -0.07521018, -0.0004050107, -0.056979373, 0.024335656, -0.063002326, 0.078259535, 0.0002500617, -0.063977174, 0.016617233, 0.08987492, 0.03214094, 0.0795744, -0.017495826, 0.06358652], "split_indices": [2, 8, 8, 0, 0, 2, 3, 9, 5, 5, 9, 3, 0, 9, 0, 0, 0, 0, 0, 0, 0, 0, 0, 0, 0, 0, 0, 0, 0, 0, 0], "split_type": [0, 0, 0, 0, 0, 0, 0, 0, 0, 0, 0, 0, 0, 0, 0, 0, 0, 0, 0, 0, 0, 0, 0, 0, 0, 0, 0, 0, 0, 0, 0], "sum_hessian": [589.9091, 228.15764, 361.7515, 156.52234, 71.6353, 80.91318, 280.83832, 97.2505, 59.27184, 50.16693, 21.468367, 69.41744, 11.495741, 154.01778, 126.82054, 86.37239, 10.878112, 16.65477, 42.61707, 24.45765, 25.709282, 2.5468917, 18.921474, 22.222645, 47.194794, 5.4034934, 6.0922475, 72.579666, 81.43811, 94.25119, 32.56935], "tree_param": {"num_deleted": "0", "num_feature": "10", "num_nodes": "31", "size_leaf_vector": "1"}}, {"base_weights": [-0.010501344, -0.62800145, 0.14333707, -0.9473013, -0.2532123, -0.13128886, 0.47262704, -0.97388965, -0.10897897, -0.6406454, 0.25523692, -0.29098833, 0.6508176, -0.3497469, 0.6216729, -0.018666713, -0.07913015, 0.030001355, -0.042623844, -0.080861546, -0.014349087, 0.051863797, -0.04495545, -0.04881473, 0.015589082, 0.00858019, 0.078813754, -0.06708717, 0.057036065, 0.06992987, 0.020064825], "categories": [], "categories_nodes": [], "categories_segments": [], "categories_sizes": [], "default_left": [0, 0, 0, 0, 0, 0, 0, 0, 0, 0, 0, 0, 0, 0, 0, 0, 0, 0, 0, 0, 0, 0, 0, 0, 0, 0, 0, 0, 0, 0, 0], "id": 35, "left_children": [1, 3, 5, 7, 9, 11, 13, 15, 17, 19, 21, 23, 25, 27, 29, -1, -1, -1, -1, -1, -1, -1, -1, -1, -1, -1, -1, -1, -1, -1, -1], "loss_changes": [55.12167, 13.608997, 42.07514, 1.2785759, 10.919494, 31.927084, 26.139244, 0.44723892, 0.8225224, 5.158079, 8.178527, 32.950474, 7.7813053, 17.786858, 16.576546, 0.0, 0.0, 0.0, 0.0, 0.0, 0.0, 0.0, 0.0, 0.0, 0.0, 0.0, 0.0, 0.0, 0.0, 0.0, 0.0], "parents": [2147483647, 0, 0, 1, 1, 2, 2, 3, 3, 4, 4, 5, 5, 6, 6, 7, 7, 8, 8, 9, 9, 10, 10, 11, 11, 12, 12, 13, 13, 14, 14], "right_children": [2, 4, 6, 8, 10, 12, 14, 16, 18, 20, 22, 24, 26, 28, 30, -1, -1, -1, -1, -1, -1, -1, -1, -1, -1, -1, -1, -1, -1, -1, -1], "split_conditions": [-0.15105365, 1.0788304, 0.13693812, 1.6956269, 0.43148535, 1.2484994, -1.0820935, -1.6379488, -0.063370645, 0.3607068, 0.23136383, 1.1050912, 0.33539608, 1.6906265, 0.37327304, -0.018666713, -0.07913015, 0.030001355, -0.042623844, -0.080861546, -0.014349087, 0.051863797, -0.04495545, -0.04881473, 0.015589082, 0.00858019, 0.078813754, -0.06708717, 0.057036065, 0.06992987, 0.020064825], "split_indices": [1, 8, 5, 9, 9, 8, 8, 4, 3, 5, 3, 1, 0, 1, 3, 0, 0, 0, 0, 0, 0, 0, 0, 0, 0, 0, 0, 0, 0, 0, 0], "split_type": [0, 0, 0, 0, 0, 0, 0, 0, 0, 0, 0, 0, 0, 0, 0, 0, 0, 0, 0, 0, 0, 0, 0, 0, 0, 0, 0, 0, 0, 0, 0], "sum_hessian": [578.30963, 114.72534, 463.5843, 61.123714, 53.601627, 253.1009, 210.48338, 59.08796, 2.0357535, 30.27352, 23.328108, 210.70474, 42.396168, 32.08806, 178.39532, 1.5201393, 57.56782, 1.004162, 1.0315914, 16.135485, 14.138035, 15.891177, 7.4369316, 127.00734, 83.69741, 16.649532, 25.746634, 22.12254, 9.96552, 105.33534, 73.05999], "tree_param": {"num_deleted": "0", "num_feature": "10", "num_nodes": "31", "size_leaf_vector": "1"}}, {"base_weights": [-0.01026227, -0.30631334, 0.29592067, -0.85913587, -0.114669435, 0.038246695, 0.6874964, -0.0806475, -0.3943471, -0.40262297, 0.30344006, -0.31615266, 0.47833368, 0.21786013, 0.8677098, -0.080344304, 0.0018022257, -0.0495256, 0.010082772, -0.065526724, 0.040920664, -0.052347984, 0.012269834, -0.03880971, 0.05405956, -0.019505814, 0.07875826, 0.024753172, 0.077515855], "categories": [], "categories_nodes": [], "categories_segments": [], "categories_sizes": [], "default_left": [0, 0, 0, 0, 0, 0, 0, 0, 0, 0, 0, 0, 0, 0, 0, 0, 0, 0, 0, 0, 0, 0, 0, 0, 0, 0, 0, 0, 0], "id": 36, "left_children": [1, 3, 5, 7, 9, 11, 13, -1, 15, 17, 19, 21, 23, 25, 27, -1, -1, -1, -1, -1, -1, -1, -1, -1, -1, -1, -1, -1, -1], "loss_changes": [51.69022, 30.615149, 28.259924, 4.7585793, 26.17926, 26.687218, 9.22261, 0.0, 5.0363073, 14.792337, 21.167656, 15.161255, 14.838371, 11.627388, 4.223545, 0.0, 0.0, 0.0, 0.0, 0.0, 0.0, 0.0, 0.0, 0.0, 0.0, 0.0, 0.0, 0.0, 0.0], "parents": [2147483647, 0, 0, 1, 1, 2, 2, 3, 3, 4, 4, 5, 5, 6, 6, 8, 8, 9, 9, 10, 10, 11, 11, 12, 12, 13, 13, 14, 14], "right_children": [2, 4, 6, 8, 10, 12, 14, -1, 16, 18, 20, 22, 24, 26, 28, -1, -1, -1, -1, -1, -1, -1, -1, -1, -1, -1, -1, -1, -1], "split_conditions": [0.4705578, -0.012235907, 0.2328416, 0.9191203, 0.36993438, 1.2966684, -0.986519, -0.0806475, -0.7427554, 0.6488483, -0.75877196, 0.33248866, -1.39551, 0.94863653, 0.17528361, -0.080344304, 0.0018022257, -0.0495256, 0.010082772, -0.065526724, 0.040920664, -0.052347984, 0.012269834, -0.03880971, 0.05405956, -0.019505814, 0.07875826, 0.024753172, 0.077515855], "split_indices": [2, 8, 8, 1, 5, 0, 5, 0, 8, 0, 2, 9, 8, 1, 1, 0, 0, 0, 0, 0, 0, 0, 0, 0, 0, 0, 0, 0, 0], "split_type": [0, 0, 0, 0, 0, 0, 0, 0, 0, 0, 0, 0, 0, 0, 0, 0, 0, 0, 0, 0, 0, 0, 0, 0, 0, 0, 0, 0, 0], "sum_hessian": [568.244, 288.9018, 279.3422, 73.4738, 215.428, 169.139, 110.20319, 54.756294, 18.717508, 127.59198, 87.83602, 93.846565, 75.29245, 31.173615, 79.02958, 7.026888, 11.69062, 90.40617, 37.185802, 13.275944, 74.560074, 54.32376, 39.5228, 12.556002, 62.736446, 19.881979, 11.2916355, 12.753685, 66.275894], "tree_param": {"num_deleted": "0", "num_feature": "10", "num_nodes": "29", "size_leaf_vector": "1"}}, {"base_weights": [-0.010007742, -0.70407796, 0.11202911, -0.9433606, -0.17825338, 0.4198849, -0.19301476, -0.9859324, -0.13906623, -0.8004099, 0.21413979, 0.14547339, 0.8204686, -0.3546696, 0.39760768, -0.07985419, -0.0193525, -0.05465428, 0.059506454, -0.07504913, 0.0052230824, -0.02620751, 0.07404337, -0.046414737, 0.023841878, -0.050379008, 0.07300898, -0.05162044, 0.016761085, -0.009817111, 0.06890755], "categories": [], "categories_nodes": [], "categories_segments": [], "categories_sizes": [], "default_left": [0, 0, 0, 0, 0, 0, 0, 0, 0, 0, 0, 0, 0, 0, 0, 0, 0, 0, 0, 0, 0, 0, 0, 0, 0, 0, 0, 0, 0, 0, 0], "id": 37, "left_children": [1, 3, 5, 7, 9, 11, 13, 15, 17, 19, 21, 23, 25, 27, 29, -1, -1, -1, -1, -1, -1, -1, -1, -1, -1, -1, -1, -1, -1, -1, -1], "loss_changes": [47.23468, 10.323696, 44.62587, 1.8171692, 6.839045, 25.866375, 22.954485, 0.25088882, 2.4457874, 1.3456635, 7.0619903, 15.837639, 13.388008, 30.977087, 12.608761, 0.0, 0.0, 0.0, 0.0, 0.0, 0.0, 0.0, 0.0, 0.0, 0.0, 0.0, 0.0, 0.0, 0.0, 0.0, 0.0], "parents": [2147483647, 0, 0, 1, 1, 2, 2, 3, 3, 4, 4, 5, 5, 6, 6, 7, 7, 8, 8, 9, 9, 10, 10, 11, 11, 12, 12, 13, 13, 14, 14], "right_children": [2, 4, 6, 8, 10, 12, 14, 16, 18, 20, 22, 24, 26, 28, 30, -1, -1, -1, -1, -1, -1, -1, -1, -1, -1, -1, -1, -1, -1, -1, -1], "split_conditions": [-0.44133663, 1.2720644, -0.0051514856, 1.612485, -0.54545146, 0.2752562, 1.4198371, 1.6846497, -0.1150998, 1.4887776, 0.49258488, -0.8865028, -1.4214315, 0.866744, -0.4316955, -0.07985419, -0.0193525, -0.05465428, 0.059506454, -0.07504913, 0.0052230824, -0.02620751, 0.07404337, -0.046414737, 0.023841878, -0.050379008, 0.07300898, -0.05162044, 0.016761085, -0.009817111, 0.06890755], "split_indices": [2, 8, 3, 9, 0, 9, 0, 6, 0, 5, 9, 8, 8, 8, 8, 0, 0, 0, 0, 0, 0, 0, 0, 0, 0, 0, 0, 0, 0, 0, 0], "split_type": [0, 0, 0, 0, 0, 0, 0, 0, 0, 0, 0, 0, 0, 0, 0, 0, 0, 0, 0, 0, 0, 0, 0, 0, 0, 0, 0, 0, 0, 0, 0], "sum_hessian": [555.72504, 82.387344, 473.33768, 56.075474, 26.311869, 235.39565, 237.94203, 53.042088, 3.0333858, 9.774366, 16.537502, 140.50725, 94.888405, 187.12495, 50.817078, 51.84721, 1.1948775, 2.016725, 1.0166607, 8.360789, 1.4135774, 9.694579, 6.842923, 23.920036, 116.58721, 5.320299, 89.56811, 123.41541, 63.709545, 24.294058, 26.523018], "tree_param": {"num_deleted": "0", "num_feature": "10", "num_nodes": "31", "size_leaf_vector": "1"}}, {"base_weights": [-0.0098177, -0.24798499, 0.3435049, -0.7954411, -0.01314618, -0.30015832, 0.5436407, -0.8455821, 0.33292004, -0.39358655, 0.30877325, -0.49734682, 0.833422, 0.26783064, 0.93754977, -0.077224426, -0.027678968, -0.038293652, 0.08994154, -0.04988073, 0.017565098, -0.026859555, 0.047101855, -0.07130325, -0.012991098, -0.023185313, 0.0985559, 0.003183064, 0.08461869, 0.03482606, 0.08786883], "categories": [], "categories_nodes": [], "categories_segments": [], "categories_sizes": [], "default_left": [0, 0, 0, 0, 0, 0, 0, 0, 0, 0, 0, 0, 0, 0, 0, 0, 0, 0, 0, 0, 0, 0, 0, 0, 0, 0, 0, 0, 0, 0, 0], "id": 38, "left_children": [1, 3, 5, 7, 9, 11, 13, 15, 17, 19, 21, 23, 25, 27, 29, -1, -1, -1, -1, -1, -1, -1, -1, -1, -1, -1, -1, -1, -1, -1, -1], "loss_changes": [46.20255, 42.15181, 28.64406, 5.850441, 28.353243, 12.280187, 18.110508, 5.31987, 3.6886387, 15.093847, 22.832022, 5.9045944, 4.045346, 18.116032, 5.110836, 0.0, 0.0, 0.0, 0.0, 0.0, 0.0, 0.0, 0.0, 0.0, 0.0, 0.0, 0.0, 0.0, 0.0, 0.0, 0.0], "parents": [2147483647, 0, 0, 1, 1, 2, 2, 3, 3, 4, 4, 5, 5, 6, 6, 7, 7, 8, 8, 9, 9, 10, 10, 11, 11, 12, 12, 13, 13, 14, 14], "right_children": [2, 4, 6, 8, 10, 12, 14, 16, 18, 20, 22, 24, 26, 28, 30, -1, -1, -1, -1, -1, -1, -1, -1, -1, -1, -1, -1, -1, -1, -1, -1], "split_conditions": [0.836284, 0.21870251, -0.9807634, 1.6254611, -0.107592575, 2.1021945, 0.13693812, 0.9052534, -0.22432221, 1.3969598, -0.2710925, 1.4340334, -1.1981764, 0.71592706, 0.33798632, -0.077224426, -0.027678968, -0.038293652, 0.08994154, -0.04988073, 0.017565098, -0.026859555, 0.047101855, -0.07130325, -0.012991098, -0.023185313, 0.0985559, 0.003183064, 0.08461869, 0.03482606, 0.08786883], "split_indices": [1, 8, 8, 5, 5, 1, 5, 2, 8, 8, 0, 2, 5, 8, 2, 0, 0, 0, 0, 0, 0, 0, 0, 0, 0, 0, 0, 0, 0, 0, 0], "split_type": [0, 0, 0, 0, 0, 0, 0, 0, 0, 0, 0, 0, 0, 0, 0, 0, 0, 0, 0, 0, 0, 0, 0, 0, 0, 0, 0, 0, 0, 0, 0], "sum_hessian": [547.0383, 326.94785, 220.09048, 97.43057, 229.51727, 52.083443, 168.00705, 93.5252, 3.9053729, 105.09486, 124.42242, 44.844, 7.2394404, 99.804886, 68.202156, 74.693436, 18.831758, 2.123094, 1.7822787, 76.42112, 28.67373, 37.622345, 86.800064, 19.844273, 24.999727, 1.9673344, 5.272106, 78.261444, 21.543446, 17.44067, 50.761482], "tree_param": {"num_deleted": "0", "num_feature": "10", "num_nodes": "31", "size_leaf_vector": "1"}}, {"base_weights": [-0.009130211, -0.28608572, 0.27243328, -0.58949417, 0.03477934, 0.48610312, -0.16211912, -0.9656592, -0.3079571, -0.10918226, 0.9113733, -0.1484698, 0.6337443, -0.32779694, 0.9688593, -0.07926182, 0.016928975, 0.026527911, -0.0519834, -0.04562133, 0.019707855, 0.0024363864, 0.08715927, -0.06258452, 0.03092038, 0.011179932, 0.06493488, -0.048498087, 0.025173366, 0.014550866, 0.08291961], "categories": [], "categories_nodes": [], "categories_segments": [], "categories_sizes": [], "default_left": [0, 0, 0, 0, 0, 0, 0, 0, 0, 0, 0, 0, 0, 0, 0, 0, 0, 0, 0, 0, 0, 0, 0, 0, 0, 0, 0, 0, 0, 0, 0], "id": 39, "left_children": [1, 3, 5, 7, 9, 11, 13, 15, 17, 19, 21, 23, 25, 27, 29, -1, -1, -1, -1, -1, -1, -1, -1, -1, -1, -1, -1, -1, -1, -1, -1], "loss_changes": [41.923367, 26.40401, 24.833313, 14.460281, 16.840557, 16.862175, 16.924816, 1.9593887, 17.960482, 18.966007, 2.919837, 12.031872, 12.666195, 14.1528015, 0.42770767, 0.0, 0.0, 0.0, 0.0, 0.0, 0.0, 0.0, 0.0, 0.0, 0.0, 0.0, 0.0, 0.0, 0.0, 0.0, 0.0], "parents": [2147483647, 0, 0, 1, 1, 2, 2, 3, 3, 4, 4, 5, 5, 6, 6, 7, 7, 8, 8, 9, 9, 10, 10, 11, 11, 12, 12, 13, 13, 14, 14], "right_children": [2, 4, 6, 8, 10, 12, 14, 16, 18, 20, 22, 24, 26, 28, 30, -1, -1, -1, -1, -1, -1, -1, -1, -1, -1, -1, -1, -1, -1, -1, -1], "split_conditions": [0.4705578, 0.8502484, 0.60978836, 0.3608534, 0.5357695, -1.0679544, 1.1589518, 1.7199893, -0.56551087, -0.107592575, -1.1671567, 1.5514653, -0.986519, 1.6644961, -1.5096071, -0.07926182, 0.016928975, 0.026527911, -0.0519834, -0.04562133, 0.019707855, 0.0024363864, 0.08715927, -0.06258452, 0.03092038, 0.011179932, 0.06493488, -0.048498087, 0.025173366, 0.014550866, 0.08291961], "split_indices": [2, 8, 3, 0, 1, 8, 8, 9, 3, 5, 9, 1, 5, 2, 5, 0, 0, 0, 0, 0, 0, 0, 0, 0, 0, 0, 0, 0, 0, 0, 0], "split_type": [0, 0, 0, 0, 0, 0, 0, 0, 0, 0, 0, 0, 0, 0, 0, 0, 0, 0, 0, 0, 0, 0, 0, 0, 0, 0, 0, 0, 0, 0, 0], "sum_hessian": [535.6136, 270.00818, 265.60538, 138.3489, 131.65927, 177.97585, 87.62953, 58.1817, 80.167206, 113.83911, 17.820166, 33.591488, 144.38437, 77.05226, 10.577274, 57.1216, 1.0600998, 27.934044, 52.233166, 49.299294, 64.53982, 3.1940901, 14.626075, 15.163492, 18.427996, 38.70854, 105.67582, 53.7951, 23.257156, 1.129084, 9.448191], "tree_param": {"num_deleted": "0", "num_feature": "10", "num_nodes": "31", "size_leaf_vector": "1"}}, {"base_weights": [-0.008571624, -0.24949658, 0.31197613, -0.42174402, 0.26682267, -0.6955534, 0.433496, -0.13181746, -0.7231973, -0.11271031, 0.71385336, 0.22315603, -0.9176734, 0.8024602, 0.16110753, -0.052031174, 0.007187118, -0.08000496, -0.023271676, -0.055325575, 0.022910828, -0.023202004, 0.07637468, -0.06034034, 0.10623525, -0.07865812, -0.00059306127, -0.047495868, 0.07163488, -0.0482527, 0.024670918], "categories": [], "categories_nodes": [], "categories_segments": [], "categories_sizes": [], "default_left": [0, 0, 0, 0, 0, 0, 0, 0, 0, 0, 0, 0, 0, 0, 0, 0, 0, 0, 0, 0, 0, 0, 0, 0, 0, 0, 0, 0, 0, 0, 0], "id": 40, "left_children": [1, 3, 5, 7, 9, 11, 13, 15, 17, 19, 21, 23, 25, 27, 29, -1, -1, -1, -1, -1, -1, -1, -1, -1, -1, -1, -1, -1, -1, -1, -1], "loss_changes": [40.774586, 26.9179, 28.040852, 19.69144, 12.976551, 5.2592564, 20.25193, 13.464078, 12.966827, 9.8944845, 8.747787, 7.0777354, 1.1945992, 11.679317, 13.45881, 0.0, 0.0, 0.0, 0.0, 0.0, 0.0, 0.0, 0.0, 0.0, 0.0, 0.0, 0.0, 0.0, 0.0, 0.0, 0.0], "parents": [2147483647, 0, 0, 1, 1, 2, 2, 3, 3, 4, 4, 5, 5, 6, 6, 7, 7, 8, 8, 9, 9, 10, 10, 11, 11, 12, 12, 13, 13, 14, 14], "right_children": [2, 4, 6, 8, 10, 12, 14, 16, 18, 20, 22, 24, 26, 28, 30, -1, -1, -1, -1, -1, -1, -1, -1, -1, -1, -1, -1, -1, -1, -1, -1], "split_conditions": [0.23194511, 1.2554781, -0.5354663, -0.016067578, -0.19368753, -1.3041664, -0.2780538, -0.0028098489, 0.866744, -0.30886903, 0.72544956, -0.42175838, 1.5724026, -1.409649, -1.2864151, -0.052031174, 0.007187118, -0.08000496, -0.023271676, -0.055325575, 0.022910828, -0.023202004, 0.07637468, -0.06034034, 0.10623525, -0.07865812, -0.00059306127, -0.047495868, 0.07163488, -0.0482527, 0.024670918], "split_indices": [9, 0, 0, 3, 8, 3, 3, 8, 8, 5, 1, 2, 5, 8, 5, 0, 0, 0, 0, 0, 0, 0, 0, 0, 0, 0, 0, 0, 0, 0, 0], "split_type": [0, 0, 0, 0, 0, 0, 0, 0, 0, 0, 0, 0, 0, 0, 0, 0, 0, 0, 0, 0, 0, 0, 0, 0, 0, 0, 0, 0, 0, 0, 0], "sum_hessian": [525.9692, 300.40512, 225.56403, 225.39505, 75.01008, 23.769085, 201.79494, 115.62677, 109.76828, 40.972195, 34.037884, 4.626943, 19.142141, 84.8777, 116.91724, 34.044456, 81.58231, 66.11317, 43.655117, 16.42136, 24.550835, 6.546235, 27.49165, 2.6233406, 2.0036027, 17.781439, 1.3607033, 4.963187, 79.91451, 18.390276, 98.52696], "tree_param": {"num_deleted": "0", "num_feature": "10", "num_nodes": "31", "size_leaf_vector": "1"}}, {"base_weights": [-0.008514787, -0.28268382, 0.25439468, -0.7527946, 0.0125884805, -0.089439325, 0.5254955, -0.9481907, -0.29656196, 0.34696236, -0.31450135, -0.3565254, 0.38601702, 0.257544, 0.92382485, -0.013731938, -0.07891223, -0.06041957, 0.030192504, -0.03491056, 0.047683664, -0.053043384, 0.015999109, 0.014790306, -0.053741526, -0.034033198, 0.047743313, -0.037041347, 0.04147026, -0.0108854575, 0.07658838], "categories": [], "categories_nodes": [], "categories_segments": [], "categories_sizes": [], "default_left": [0, 0, 0, 0, 0, 0, 0, 0, 0, 0, 0, 0, 0, 0, 0, 0, 0, 0, 0, 0, 0, 0, 0, 0, 0, 0, 0, 0, 0, 0, 0], "id": 41, "left_children": [1, 3, 5, 7, 9, 11, 13, 15, 17, 19, 21, 23, 25, 27, 29, -1, -1, -1, -1, -1, -1, -1, -1, -1, -1, -1, -1, -1, -1, -1, -1], "loss_changes": [37.56523, 35.419624, 24.846884, 8.493328, 17.353329, 15.140903, 15.655315, 1.8620911, 9.858935, 15.565438, 14.51893, 13.124573, 7.6041603, 17.232088, 2.244709, 0.0, 0.0, 0.0, 0.0, 0.0, 0.0, 0.0, 0.0, 0.0, 0.0, 0.0, 0.0, 0.0, 0.0, 0.0, 0.0], "parents": [2147483647, 0, 0, 1, 1, 2, 2, 3, 3, 4, 4, 5, 5, 6, 6, 7, 7, 8, 8, 9, 9, 10, 10, 11, 11, 12, 12, 13, 13, 14, 14], "right_children": [2, 4, 6, 8, 10, 12, 14, 16, 18, 20, 22, 24, 26, 28, 30, -1, -1, -1, -1, -1, -1, -1, -1, -1, -1, -1, -1, -1, -1, -1, -1], "split_conditions": [0.6920269, 0.6028144, -0.22432221, 0.85668886, -0.20891853, 1.622202, 1.0887525, -1.5990467, 0.33539608, -0.83226943, 0.10949031, -0.61645263, -1.409649, -0.9974767, -1.6768569, -0.013731938, -0.07891223, -0.06041957, 0.030192504, -0.03491056, 0.047683664, -0.053043384, 0.015999109, 0.014790306, -0.053741526, -0.034033198, 0.047743313, -0.037041347, 0.04147026, -0.0108854575, 0.07658838], "split_indices": [0, 8, 8, 5, 3, 2, 1, 4, 0, 9, 1, 3, 8, 5, 5, 0, 0, 0, 0, 0, 0, 0, 0, 0, 0, 0, 0, 0, 0, 0, 0], "split_type": [0, 0, 0, 0, 0, 0, 0, 0, 0, 0, 0, 0, 0, 0, 0, 0, 0, 0, 0, 0, 0, 0, 0, 0, 0, 0, 0, 0, 0, 0, 0], "sum_hessian": [519.15076, 254.09671, 265.05408, 97.4286, 156.6681, 117.14744, 147.90662, 67.458885, 29.96971, 77.4414, 79.226715, 75.17069, 41.97675, 89.40887, 58.497757, 3.4214158, 64.03747, 17.761303, 12.208407, 18.502087, 58.93931, 47.058342, 32.16837, 27.814756, 47.355938, 8.445441, 33.531307, 23.556984, 65.85188, 1.7000648, 56.79769], "tree_param": {"num_deleted": "0", "num_feature": "10", "num_nodes": "31", "size_leaf_vector": "1"}}, {"base_weights": [-0.008403864, -0.23134364, 0.3024825, -0.4194393, 0.19374442, -0.67772114, 0.41293448, -0.55637777, 0.29746273, -0.81421554, 0.32691878, 0.19441271, -0.893078, 0.59191847, -0.08517444, -0.060691066, -0.005431241, -0.014676314, 0.08306101, -0.0769965, 0.025724174, -0.0110075595, 0.04507682, -0.058404174, 0.09812913, -0.07737136, 0.0032566437, 0.012776439, 0.06302937, -0.07130512, 0.0063136355], "categories": [], "categories_nodes": [], "categories_segments": [], "categories_sizes": [], "default_left": [0, 0, 0, 0, 0, 0, 0, 0, 0, 0, 0, 0, 0, 0, 0, 0, 0, 0, 0, 0, 0, 0, 0, 0, 0, 0, 0, 0, 0, 0, 0], "id": 42, "left_children": [1, 3, 5, 7, 9, 11, 13, 15, 17, 19, 21, 23, 25, 27, 29, -1, -1, -1, -1, -1, -1, -1, -1, -1, -1, -1, -1, -1, -1, -1, -1], "loss_changes": [35.396473, 23.860565, 23.372421, 20.436726, 12.603981, 4.3017855, 17.196102, 17.112324, 12.220777, 2.163702, 9.076356, 5.8325253, 1.2707987, 11.866928, 6.9109154, 0.0, 0.0, 0.0, 0.0, 0.0, 0.0, 0.0, 0.0, 0.0, 0.0, 0.0, 0.0, 0.0, 0.0, 0.0, 0.0], "parents": [2147483647, 0, 0, 1, 1, 2, 2, 3, 3, 4, 4, 5, 5, 6, 6, 7, 7, 8, 8, 9, 9, 10, 10, 11, 11, 12, 12, 13, 13, 14, 14], "right_children": [2, 4, 6, 8, 10, 12, 14, 16, 18, 20, 22, 24, 26, 28, 30, -1, -1, -1, -1, -1, -1, -1, -1, -1, -1, -1, -1, -1, -1,